{"learner":{"attributes":{"best_iteration":"1254","best_score":"67.12431177482577","scikit_learn":"{\"_estimator_type\": \"regressor\"}"},"feature_names":["age","gender","height","weight","activitylevel","goal","products_protein","products_fat","products_carbs"],"feature_types":["int","c","int","int","c","c","float","float","float"],"gradient_booster":{"model":{"gbtree_model_param":{"num_parallel_tree":"1","num_trees":"1295"},"iteration_indptr":[0,1,2,3,4,5,6,7,8,9,10,11,12,13,14,15,16,17,18,19,20,21,22,23,24,25,26,27,28,29,30,31,32,33,34,35,36,37,38,39,40,41,42,43,44,45,46,47,48,49,50,51,52,53,54,55,56,57,58,59,60,61,62,63,64,65,66,67,68,69,70,71,72,73,74,75,76,77,78,79,80,81,82,83,84,85,86,87,88,89,90,91,92,93,94,95,96,97,98,99,100,101,102,103,104,105,106,107,108,109,110,111,112,113,114,115,116,117,118,119,120,121,122,123,124,125,126,127,128,129,130,131,132,133,134,135,136,137,138,139,140,141,142,143,144,145,146,147,148,149,150,151,152,153,154,155,156,157,158,159,160,161,162,163,164,165,166,167,168,169,170,171,172,173,174,175,176,177,178,179,180,181,182,183,184,185,186,187,188,189,190,191,192,193,194,195,196,197,198,199,200,201,202,203,204,205,206,207,208,209,210,211,212,213,214,215,216,217,218,219,220,221,222,223,224,225,226,227,228,229,230,231,232,233,234,235,236,237,238,239,240,241,242,243,244,245,246,247,248,249,250,251,252,253,254,255,256,257,258,259,260,261,262,263,264,265,266,267,268,269,270,271,272,273,274,275,276,277,278,279,280,281,282,283,284,285,286,287,288,289,290,291,292,293,294,295,296,297,298,299,300,301,302,303,304,305,306,307,308,309,310,311,312,313,314,315,316,317,318,319,320,321,322,323,324,325,326,327,328,329,330,331,332,333,334,335,336,337,338,339,340,341,342,343,344,345,346,347,348,349,350,351,352,353,354,355,356,357,358,359,360,361,362,363,364,365,366,367,368,369,370,371,372,373,374,375,376,377,378,379,380,381,382,383,384,385,386,387,388,389,390,391,392,393,394,395,396,397,398,399,400,401,402,403,404,405,406,407,408,409,410,411,412,413,414,415,416,417,418,419,420,421,422,423,424,425,426,427,428,429,430,431,432,433,434,435,436,437,438,439,440,441,442,443,444,445,446,447,448,449,450,451,452,453,454,455,456,457,458,459,460,461,462,463,464,465,466,467,468,469,470,471,472,473,474,475,476,477,478,479,480,481,482,483,484,485,486,487,488,489,490,491,492,493,494,495,496,497,498,499,500,501,502,503,504,505,506,507,508,509,510,511,512,513,514,515,516,517,518,519,520,521,522,523,524,525,526,527,528,529,530,531,532,533,534,535,536,537,538,539,540,541,542,543,544,545,546,547,548,549,550,551,552,553,554,555,556,557,558,559,560,561,562,563,564,565,566,567,568,569,570,571,572,573,574,575,576,577,578,579,580,581,582,583,584,585,586,587,588,589,590,591,592,593,594,595,596,597,598,599,600,601,602,603,604,605,606,607,608,609,610,611,612,613,614,615,616,617,618,619,620,621,622,623,624,625,626,627,628,629,630,631,632,633,634,635,636,637,638,639,640,641,642,643,644,645,646,647,648,649,650,651,652,653,654,655,656,657,658,659,660,661,662,663,664,665,666,667,668,669,670,671,672,673,674,675,676,677,678,679,680,681,682,683,684,685,686,687,688,689,690,691,692,693,694,695,696,697,698,699,700,701,702,703,704,705,706,707,708,709,710,711,712,713,714,715,716,717,718,719,720,721,722,723,724,725,726,727,728,729,730,731,732,733,734,735,736,737,738,739,740,741,742,743,744,745,746,747,748,749,750,751,752,753,754,755,756,757,758,759,760,761,762,763,764,765,766,767,768,769,770,771,772,773,774,775,776,777,778,779,780,781,782,783,784,785,786,787,788,789,790,791,792,793,794,795,796,797,798,799,800,801,802,803,804,805,806,807,808,809,810,811,812,813,814,815,816,817,818,819,820,821,822,823,824,825,826,827,828,829,830,831,832,833,834,835,836,837,838,839,840,841,842,843,844,845,846,847,848,849,850,851,852,853,854,855,856,857,858,859,860,861,862,863,864,865,866,867,868,869,870,871,872,873,874,875,876,877,878,879,880,881,882,883,884,885,886,887,888,889,890,891,892,893,894,895,896,897,898,899,900,901,902,903,904,905,906,907,908,909,910,911,912,913,914,915,916,917,918,919,920,921,922,923,924,925,926,927,928,929,930,931,932,933,934,935,936,937,938,939,940,941,942,943,944,945,946,947,948,949,950,951,952,953,954,955,956,957,958,959,960,961,962,963,964,965,966,967,968,969,970,971,972,973,974,975,976,977,978,979,980,981,982,983,984,985,986,987,988,989,990,991,992,993,994,995,996,997,998,999,1000,1001,1002,1003,1004,1005,1006,1007,1008,1009,1010,1011,1012,1013,1014,1015,1016,1017,1018,1019,1020,1021,1022,1023,1024,1025,1026,1027,1028,1029,1030,1031,1032,1033,1034,1035,1036,1037,1038,1039,1040,1041,1042,1043,1044,1045,1046,1047,1048,1049,1050,1051,1052,1053,1054,1055,1056,1057,1058,1059,1060,1061,1062,1063,1064,1065,1066,1067,1068,1069,1070,1071,1072,1073,1074,1075,1076,1077,1078,1079,1080,1081,1082,1083,1084,1085,1086,1087,1088,1089,1090,1091,1092,1093,1094,1095,1096,1097,1098,1099,1100,1101,1102,1103,1104,1105,1106,1107,1108,1109,1110,1111,1112,1113,1114,1115,1116,1117,1118,1119,1120,1121,1122,1123,1124,1125,1126,1127,1128,1129,1130,1131,1132,1133,1134,1135,1136,1137,1138,1139,1140,1141,1142,1143,1144,1145,1146,1147,1148,1149,1150,1151,1152,1153,1154,1155,1156,1157,1158,1159,1160,1161,1162,1163,1164,1165,1166,1167,1168,1169,1170,1171,1172,1173,1174,1175,1176,1177,1178,1179,1180,1181,1182,1183,1184,1185,1186,1187,1188,1189,1190,1191,1192,1193,1194,1195,1196,1197,1198,1199,1200,1201,1202,1203,1204,1205,1206,1207,1208,1209,1210,1211,1212,1213,1214,1215,1216,1217,1218,1219,1220,1221,1222,1223,1224,1225,1226,1227,1228,1229,1230,1231,1232,1233,1234,1235,1236,1237,1238,1239,1240,1241,1242,1243,1244,1245,1246,1247,1248,1249,1250,1251,1252,1253,1254,1255,1256,1257,1258,1259,1260,1261,1262,1263,1264,1265,1266,1267,1268,1269,1270,1271,1272,1273,1274,1275,1276,1277,1278,1279,1280,1281,1282,1283,1284,1285,1286,1287,1288,1289,1290,1291,1292,1293,1294,1295],"tree_info":[0,0,0,0,0,0,0,0,0,0,0,0,0,0,0,0,0,0,0,0,0,0,0,0,0,0,0,0,0,0,0,0,0,0,0,0,0,0,0,0,0,0,0,0,0,0,0,0,0,0,0,0,0,0,0,0,0,0,0,0,0,0,0,0,0,0,0,0,0,0,0,0,0,0,0,0,0,0,0,0,0,0,0,0,0,0,0,0,0,0,0,0,0,0,0,0,0,0,0,0,0,0,0,0,0,0,0,0,0,0,0,0,0,0,0,0,0,0,0,0,0,0,0,0,0,0,0,0,0,0,0,0,0,0,0,0,0,0,0,0,0,0,0,0,0,0,0,0,0,0,0,0,0,0,0,0,0,0,0,0,0,0,0,0,0,0,0,0,0,0,0,0,0,0,0,0,0,0,0,0,0,0,0,0,0,0,0,0,0,0,0,0,0,0,0,0,0,0,0,0,0,0,0,0,0,0,0,0,0,0,0,0,0,0,0,0,0,0,0,0,0,0,0,0,0,0,0,0,0,0,0,0,0,0,0,0,0,0,0,0,0,0,0,0,0,0,0,0,0,0,0,0,0,0,0,0,0,0,0,0,0,0,0,0,0,0,0,0,0,0,0,0,0,0,0,0,0,0,0,0,0,0,0,0,0,0,0,0,0,0,0,0,0,0,0,0,0,0,0,0,0,0,0,0,0,0,0,0,0,0,0,0,0,0,0,0,0,0,0,0,0,0,0,0,0,0,0,0,0,0,0,0,0,0,0,0,0,0,0,0,0,0,0,0,0,0,0,0,0,0,0,0,0,0,0,0,0,0,0,0,0,0,0,0,0,0,0,0,0,0,0,0,0,0,0,0,0,0,0,0,0,0,0,0,0,0,0,0,0,0,0,0,0,0,0,0,0,0,0,0,0,0,0,0,0,0,0,0,0,0,0,0,0,0,0,0,0,0,0,0,0,0,0,0,0,0,0,0,0,0,0,0,0,0,0,0,0,0,0,0,0,0,0,0,0,0,0,0,0,0,0,0,0,0,0,0,0,0,0,0,0,0,0,0,0,0,0,0,0,0,0,0,0,0,0,0,0,0,0,0,0,0,0,0,0,0,0,0,0,0,0,0,0,0,0,0,0,0,0,0,0,0,0,0,0,0,0,0,0,0,0,0,0,0,0,0,0,0,0,0,0,0,0,0,0,0,0,0,0,0,0,0,0,0,0,0,0,0,0,0,0,0,0,0,0,0,0,0,0,0,0,0,0,0,0,0,0,0,0,0,0,0,0,0,0,0,0,0,0,0,0,0,0,0,0,0,0,0,0,0,0,0,0,0,0,0,0,0,0,0,0,0,0,0,0,0,0,0,0,0,0,0,0,0,0,0,0,0,0,0,0,0,0,0,0,0,0,0,0,0,0,0,0,0,0,0,0,0,0,0,0,0,0,0,0,0,0,0,0,0,0,0,0,0,0,0,0,0,0,0,0,0,0,0,0,0,0,0,0,0,0,0,0,0,0,0,0,0,0,0,0,0,0,0,0,0,0,0,0,0,0,0,0,0,0,0,0,0,0,0,0,0,0,0,0,0,0,0,0,0,0,0,0,0,0,0,0,0,0,0,0,0,0,0,0,0,0,0,0,0,0,0,0,0,0,0,0,0,0,0,0,0,0,0,0,0,0,0,0,0,0,0,0,0,0,0,0,0,0,0,0,0,0,0,0,0,0,0,0,0,0,0,0,0,0,0,0,0,0,0,0,0,0,0,0,0,0,0,0,0,0,0,0,0,0,0,0,0,0,0,0,0,0,0,0,0,0,0,0,0,0,0,0,0,0,0,0,0,0,0,0,0,0,0,0,0,0,0,0,0,0,0,0,0,0,0,0,0,0,0,0,0,0,0,0,0,0,0,0,0,0,0,0,0,0,0,0,0,0,0,0,0,0,0,0,0,0,0,0,0,0,0,0,0,0,0,0,0,0,0,0,0,0,0,0,0,0,0,0,0,0,0,0,0,0,0,0,0,0,0,0,0,0,0,0,0,0,0,0,0,0,0,0,0,0,0,0,0,0,0,0,0,0,0,0,0,0,0,0,0,0,0,0,0,0,0,0,0,0,0,0,0,0,0,0,0,0,0,0,0,0,0,0,0,0,0,0,0,0,0,0,0,0,0,0,0,0,0,0,0,0,0,0,0,0,0,0,0,0,0,0,0,0,0,0,0,0,0,0,0,0,0,0,0,0,0,0,0,0,0,0,0,0,0,0,0,0,0,0,0,0,0,0,0,0,0,0,0,0,0,0,0,0,0,0,0,0,0,0,0,0,0,0,0,0,0,0,0,0,0,0,0,0,0,0,0,0,0,0,0,0,0,0,0,0,0,0,0,0,0,0,0,0,0,0,0,0,0,0,0,0,0,0,0,0,0,0,0,0,0,0,0,0,0,0,0,0,0,0,0,0,0,0,0,0,0,0,0,0,0,0,0,0,0,0,0,0,0,0,0,0,0,0,0,0,0,0,0,0,0,0,0,0,0,0,0,0,0,0,0,0,0,0,0,0,0,0,0,0,0,0,0,0,0,0,0,0,0,0,0,0,0,0,0,0,0,0,0,0,0,0,0,0,0,0,0,0,0,0,0,0,0,0,0,0,0,0,0,0,0,0,0,0,0,0,0,0,0,0,0,0,0,0,0,0,0,0,0,0,0,0,0,0,0,0,0,0,0,0,0,0,0,0,0,0,0,0,0,0,0,0,0,0,0,0,0,0,0,0,0,0,0,0,0,0,0,0,0,0,0,0,0,0,0,0,0,0,0,0,0,0,0,0,0,0,0,0,0,0,0,0,0,0,0,0,0,0,0,0,0,0,0,0,0,0,0,0,0,0,0,0,0,0,0,0,0,0,0,0,0,0,0,0,0,0,0,0,0,0,0,0,0,0,0,0],"trees":[{"base_weights":[7.209634E-7,1.0267563E3,-1.7090694E1,1.6034058E3,7.726219E2,5.981298E2,-2.4790178E1,1.9336658E2,8.2036064E1,1.0148159E2,4.4064156E1,3.4904617E1,1.03648415E2,1.8721796E1,-3.9251626E0],"categories":[1,4,6,0,2,3],"categories_nodes":[3,4],"categories_segments":[0,3],"categories_sizes":[3,3],"default_left":[0,0,0,1,1,0,0,0,0,0,0,0,0,0,0],"id":0,"left_children":[1,3,5,7,9,11,13,-1,-1,-1,-1,-1,-1,-1,-1],"loss_changes":[4.1799292E7,4.476488E6,1.1113338E7,1.258388E6,1.884536E6,2.804639E6,7.105009E6,0E0,0E0,0E0,0E0,0E0,0E0,0E0,0E0],"parents":[2147483647,0,0,1,1,2,2,3,3,4,4,5,5,6,6],"right_children":[2,4,6,8,10,12,14,-1,-1,-1,-1,-1,-1,-1,-1],"split_conditions":[5.7639265E-1,2.1962188E-1,4.6684724E-1,NaN,NaN,1.25E2,2.2602367E0,1.9336658E2,8.2036064E1,1.0148159E2,4.4064156E1,3.4904617E1,1.03648415E2,1.8721796E1,-3.9251626E0],"split_indices":[8,8,6,5,4,3,8,0,0,0,0,0,0,0,0],"split_type":[0,0,0,1,1,0,0,0,0,0,0,0,0,0,0],"sum_hessian":[2.38E3,3.8E1,2.342E3,1E1,2.8E1,2.8E1,2.314E3,6E0,4E0,1.5E1,1.3E1,1.9E1,9E0,1.47E2,2.167E3],"tree_param":{"num_deleted":"0","num_feature":"9","num_nodes":"15","size_leaf_vector":"1"}},{"base_weights":[2.4120179E-1,9.3487427E2,-1.5316174E1,1.4681018E3,7.0037854E2,4.2203537E2,-2.4452742E1,1.767923E2,7.547318E1,9.196769E1,3.9972485E1,9.051689E1,2.7107473E1,1.6040123E1,-3.781778E0],"categories":[1,4,6,0,2,3],"categories_nodes":[3,4],"categories_segments":[0,3],"categories_sizes":[3,3],"default_left":[0,0,0,1,1,0,0,0,0,0,0,0,0,0,0],"id":1,"left_children":[1,3,5,7,9,11,13,-1,-1,-1,-1,-1,-1,-1,-1],"loss_changes":[3.4635096E7,3.84832E6,9.372694E6,1.018408E6,1.544434E6,3.255471E6,5.678519E6,0E0,0E0,0E0,0E0,0E0,0E0,0E0,0E0],"parents":[2147483647,0,0,1,1,2,2,3,3,4,4,5,5,6,6],"right_children":[2,4,6,8,10,12,14,-1,-1,-1,-1,-1,-1,-1,-1],"split_conditions":[5.7639265E-1,2.1962188E-1,5.9784037E-1,NaN,NaN,2.6207465E-1,2.3765268E0,1.767923E2,7.547318E1,9.196769E1,3.9972485E1,9.051689E1,2.7107473E1,1.6040123E1,-3.781778E0],"split_indices":[8,8,6,5,4,6,8,0,0,0,0,0,0,0,0],"split_type":[0,0,0,1,1,0,0,0,0,0,0,0,0,0,0],"sum_hessian":[2.38E3,3.8E1,2.342E3,1E1,2.8E1,4.7E1,2.295E3,6E0,4E0,1.5E1,1.3E1,1E1,3.7E1,1.54E2,2.141E3],"tree_param":{"num_deleted":"0","num_feature":"9","num_nodes":"15","size_leaf_vector":"1"}},{"base_weights":[4.32993E-1,8.512383E2,-1.3729123E1,1.3442249E3,6.348903E2,8.228808E2,-1.766782E1,2.4962458E1,1.4287224E2,8.334572E1,3.6260754E1,1.1933411E2,1.3966036E1,2.1952467E1,-2.6515155E0],"categories":[0,2,3,1,4,5,6],"categories_nodes":[4,5],"categories_segments":[0,3],"categories_sizes":[3,4],"default_left":[0,0,0,0,1,1,0,0,0,0,0,0,0,0,0],"id":2,"left_children":[1,3,5,7,9,11,13,-1,-1,-1,-1,-1,-1,-1,-1],"loss_changes":[2.870084E7,3.306174E6,7.735082E6,6.60756E5,1.265706E6,2.617503E6,4.90167E6,0E0,0E0,0E0,0E0,0E0,0E0,0E0,0E0],"parents":[2147483647,0,0,1,1,2,2,3,3,4,4,5,5,6,6],"right_children":[2,4,6,8,10,12,14,-1,-1,-1,-1,-1,-1,-1,-1],"split_conditions":[5.7639265E-1,2.1962188E-1,2.6207465E-1,1.31E2,NaN,NaN,1.5063659E0,2.4962458E1,1.4287224E2,8.334572E1,3.6260754E1,1.1933411E2,1.3966036E1,2.1952467E1,-2.6515155E0],"split_indices":[8,8,6,2,4,5,8,0,0,0,0,0,0,0,0],"split_type":[0,0,0,0,1,1,0,0,0,0,0,0,0,0,0],"sum_hessian":[2.38E3,3.8E1,2.342E3,1E1,2.8E1,1E1,2.332E3,1E0,9E0,1.5E1,1.3E1,6E0,4E0,8.3E1,2.249E3],"tree_param":{"num_deleted":"0","num_feature":"9","num_nodes":"15","size_leaf_vector":"1"}},{"base_weights":[5.745045E-1,7.7348474E2,-1.2291083E1,1.22506E3,5.7552563E2,3.6670786E2,-2.0209053E1,1.4939247E2,6.0363747E1,7.553206E1,3.289368E1,7.527109E1,2.4531994E1,1.2009781E1,-3.2924345E0],"categories":[1,4,6,0,2,3],"categories_nodes":[3,4],"categories_segments":[0,3],"categories_sizes":[3,3],"default_left":[0,0,0,1,1,0,0,0,0,0,0,0,0,0,0],"id":3,"left_children":[1,3,5,7,9,11,13,-1,-1,-1,-1,-1,-1,-1,-1],"loss_changes":[2.3686038E7,2.78129E6,7.038525E6,9.36075E5,1.037274E6,2.0644385E6,4.1001158E6,0E0,0E0,0E0,0E0,0E0,0E0,0E0,0E0],"parents":[2147483647,0,0,1,1,2,2,3,3,4,4,5,5,6,6],"right_children":[2,4,6,8,10,12,14,-1,-1,-1,-1,-1,-1,-1,-1],"split_conditions":[5.7639265E-1,2.1962188E-1,5.9784037E-1,NaN,NaN,2.6207465E-1,2.910934E0,1.4939247E2,6.0363747E1,7.553206E1,3.289368E1,7.527109E1,2.4531994E1,1.2009781E1,-3.2924345E0],"split_indices":[8,8,6,5,4,6,8,0,0,0,0,0,0,0,0],"split_type":[0,0,0,1,1,0,0,0,0,0,0,0,0,0,0],"sum_hessian":[2.38E3,3.8E1,2.342E3,1E1,2.8E1,4.7E1,2.295E3,6E0,4E0,1.5E1,1.3E1,1E1,3.7E1,1.9E2,2.105E3],"tree_param":{"num_deleted":"0","num_feature":"9","num_nodes":"15","size_leaf_vector":"1"}},{"base_weights":[6.962657E-1,5.804945E2,-1.3518443E1,1.1216228E3,4.4149655E2,3.321163E2,-2.0795418E1,1.4031294E2,6.531792E1,5.4311707E1,2.4760145E1,2.3127834E1,7.4338326E1,5.3670835E0,-3.4708226E0],"categories":[1,3,4,6,0,3],"categories_nodes":[3,4],"categories_segments":[0,4],"categories_sizes":[4,2],"default_left":[0,0,0,1,1,0,0,0,0,0,0,0,0,0,0],"id":4,"left_children":[1,3,5,7,9,11,13,-1,-1,-1,-1,-1,-1,-1,-1],"loss_changes":[1.963125E7,3.792102E6,5.8546895E6,5.34075E5,7.91598E5,1.8186945E6,2.3619498E6,0E0,0E0,0E0,0E0,0E0,0E0,0E0,0E0],"parents":[2147483647,0,0,1,1,2,2,3,3,4,4,5,5,6,6],"right_children":[2,4,6,8,10,12,14,-1,-1,-1,-1,-1,-1,-1,-1],"split_conditions":[7.210351E-1,2.1962188E-1,5.9784037E-1,NaN,NaN,2.1E2,5.183455E0,1.4031294E2,6.531792E1,5.4311707E1,2.4760145E1,2.3127834E1,7.4338326E1,5.3670835E0,-3.4708226E0],"split_indices":[8,8,6,5,4,2,8,0,0,0,0,0,0,0,0],"split_type":[0,0,0,1,1,0,0,0,0,0,0,0,0,0,0],"sum_hessian":[2.38E3,5.6E1,2.324E3,1E1,4.6E1,4.7E1,2.277E3,5E0,5E0,2.9E1,1.7E1,3.9E1,8E0,3.58E2,1.919E3],"tree_param":{"num_deleted":"0","num_feature":"9","num_nodes":"15","size_leaf_vector":"1"}},{"base_weights":[7.879457E-1,6.450007E2,-9.935522E0,7.902728E2,2.5228236E2,4.827201E2,-1.4170968E1,9.9189476E1,4.813325E1,2.9123123E1,3.8358662E0,2.7785955E1,1.2326973E2,1.7226011E1,-2.115269E0],"categories":[1,4],"categories_nodes":[1],"categories_segments":[0],"categories_sizes":[2],"default_left":[0,1,0,0,0,0,0,0,0,0,0,0,0,0,0],"id":5,"left_children":[1,3,5,7,9,11,13,-1,-1,-1,-1,-1,-1,-1,-1],"loss_changes":[1.6454819E7,2.025617E6,4.895782E6,1.266666E6,8.881381E4,2.730298E6,3.028585E6,0E0,0E0,0E0,0E0,0E0,0E0,0E0,0E0],"parents":[2147483647,0,0,1,1,2,2,3,3,4,4,5,5,6,6],"right_children":[2,4,6,8,10,12,14,-1,-1,-1,-1,-1,-1,-1,-1],"split_conditions":[5.7639265E-1,NaN,3.3063176E-1,3.5815495E-1,5.4E1,2.09E2,1.5063659E0,9.9189476E1,4.813325E1,2.9123123E1,3.8358662E0,2.7785955E1,1.2326973E2,1.7226011E1,-2.115269E0],"split_indices":[8,5,6,8,0,2,8,0,0,0,0,0,0,0,0],"split_type":[0,1,0,0,0,0,0,0,0,0,0,0,0,0,0],"sum_hessian":[2.38E3,3.8E1,2.342E3,2.7E1,1.1E1,1.9E1,2.323E3,1.5E1,1.2E1,9E0,2E0,1.6E1,3E0,8.3E1,2.24E3],"tree_param":{"num_deleted":"0","num_feature":"9","num_nodes":"15","size_leaf_vector":"1"}},{"base_weights":[8.546595E-1,5.851232E2,-8.871046E0,9.443517E2,4.286875E2,2.248698E2,-1.669972E1,1.1713E2,4.3775383E1,5.748883E1,2.3098036E1,1.0160285E2,1.8975702E1,7.98665E0,-2.8273704E0],"categories":[1,4,6,0,2,3],"categories_nodes":[3,4],"categories_segments":[0,3],"categories_sizes":[3,3],"default_left":[0,0,0,1,1,0,0,0,0,0,0,0,0,0,0],"id":6,"left_children":[1,3,5,7,9,11,13,-1,-1,-1,-1,-1,-1,-1,-1],"loss_changes":[1.3535043E7,1.786819E6,4.2911665E6,7.51946E5,7.054555E5,1.9184645E6,2.5371018E6,0E0,0E0,0E0,0E0,0E0,0E0,0E0,0E0],"parents":[2147483647,0,0,1,1,2,2,3,3,4,4,5,5,6,6],"right_children":[2,4,6,8,10,12,14,-1,-1,-1,-1,-1,-1,-1,-1],"split_conditions":[5.7639265E-1,2.1962188E-1,1.0141711E0,NaN,NaN,6.3683033E-1,3.5154035E0,1.1713E2,4.3775383E1,5.748883E1,2.3098036E1,1.0160285E2,1.8975702E1,7.98665E0,-2.8273704E0],"split_indices":[8,8,6,5,4,7,8,0,0,0,0,0,0,0,0],"split_type":[0,0,0,1,1,0,0,0,0,0,0,0,0,0,0],"sum_hessian":[2.38E3,3.8E1,2.342E3,1E1,2.8E1,7.5E1,2.267E3,6E0,4E0,1.5E1,1.3E1,2E0,7.3E1,2.42E2,2.025E3],"tree_param":{"num_deleted":"0","num_feature":"9","num_nodes":"15","size_leaf_vector":"1"}},{"base_weights":[9.234266E-1,4.4271115E2,-9.907895E0,8.6454425E2,3.3456488E2,3.4453262E2,-1.4378451E1,1.0595497E2,4.186278E1,4.7780064E1,2.452238E1,1.6250875E1,6.741271E1,4.446414E0,-2.5409708E0],"categories":[0,2,3,4],"categories_nodes":[4],"categories_segments":[0],"categories_sizes":[4],"default_left":[0,0,0,0,1,0,0,0,0,0,0,0,0,0,0],"id":7,"left_children":[1,3,5,7,9,11,13,-1,-1,-1,-1,-1,-1,-1,-1],"loss_changes":[1.1397817E7,2.311076E6,3.689024E6,5.129605E5,4.842835E5,1.6302768E6,1.49213E6,0E0,0E0,0E0,0E0,0E0,0E0,0E0,0E0],"parents":[2147483647,0,0,1,1,2,2,3,3,4,4,5,5,6,6],"right_children":[2,4,6,8,10,12,14,-1,-1,-1,-1,-1,-1,-1,-1],"split_conditions":[7.210351E-1,2.1962188E-1,4.6684724E-1,1.641946E1,NaN,1.25E2,5.183455E0,1.0595497E2,4.186278E1,4.7780064E1,2.452238E1,1.6250875E1,6.741271E1,4.446414E0,-2.5409708E0],"split_indices":[8,8,6,6,4,3,8,0,0,0,0,0,0,0,0],"split_type":[0,0,0,0,1,0,0,0,0,0,0,0,0,0,0],"sum_hessian":[2.38E3,5.6E1,2.324E3,1E1,4.6E1,2.8E1,2.296E3,6E0,4E0,1.6E1,3E1,1.9E1,9E0,3.62E2,1.934E3],"tree_param":{"num_deleted":"0","num_feature":"9","num_nodes":"15","size_leaf_vector":"1"}},{"base_weights":[9.594703E-1,4.023018E2,-8.880302E0,7.9152783E2,3.0264673E2,1.9285138E2,-1.5690404E1,9.892403E1,3.5642483E1,3.9894794E1,1.9373524E1,9.0335144E1,1.6144123E1,2.5924305E1,-1.8023758E0],"categories":[1,4,6,0,2,3],"categories_nodes":[3,4],"categories_segments":[0,3],"categories_sizes":[3,3],"default_left":[0,0,0,1,1,0,0,0,0,0,0,0,0,0,0],"id":8,"left_children":[1,3,5,7,9,11,13,-1,-1,-1,-1,-1,-1,-1,-1],"loss_changes":[9.406421E6,1.971382E6,3.1971418E6,5.936875E5,4.1566E5,1.550248E6,1.4480855E6,0E0,0E0,0E0,0E0,0E0,0E0,0E0,0E0],"parents":[2147483647,0,0,1,1,2,2,3,3,4,4,5,5,6,6],"right_children":[2,4,6,8,10,12,14,-1,-1,-1,-1,-1,-1,-1,-1],"split_conditions":[7.210351E-1,2.1962188E-1,1.0141711E0,NaN,NaN,6.3683033E-1,4.231066E-1,9.892403E1,3.5642483E1,3.9894794E1,1.9373524E1,9.0335144E1,1.6144123E1,2.5924305E1,-1.8023758E0],"split_indices":[8,8,6,5,4,7,7,0,0,0,0,0,0,0,0],"split_type":[0,0,0,1,1,0,0,0,0,0,0,0,0,0,0],"sum_hessian":[2.38E3,5.6E1,2.324E3,1E1,4.6E1,7.5E1,2.249E3,6E0,4E0,2.3E1,2.3E1,2E0,7.3E1,1.8E1,2.231E3],"tree_param":{"num_deleted":"0","num_feature":"9","num_nodes":"15","size_leaf_vector":"1"}},{"base_weights":[9.9978316E-1,5.2079944E2,-5.407012E0,9.970614E2,4.2749762E2,4.9952142E2,-7.7752604E0,1.1328454E2,2.9485487E1,5.0778328E1,1.8338196E1,8.0195465E1,-2.3789337E0,1.50327215E1,-1.3720783E0],"categories":[1,2,3,4,5,6,0,1,4,1,4,5,6],"categories_nodes":[1,4,5],"categories_segments":[0,6,9],"categories_sizes":[6,3,4],"default_left":[0,1,0,0,1,1,0,0,0,0,0,0,0,0,0],"id":9,"left_children":[1,3,5,7,9,11,13,-1,-1,-1,-1,-1,-1,-1,-1],"loss_changes":[7.932141E6,8.62406E5,2.8175918E6,4.736825E4,4.16456E5,1.7600098E6,2.2044868E6,0E0,0E0,0E0,0E0,0E0,0E0,0E0,0E0],"parents":[2147483647,0,0,1,1,2,2,3,3,4,4,5,5,6,6],"right_children":[2,4,6,8,10,12,14,-1,-1,-1,-1,-1,-1,-1,-1],"split_conditions":[4.4954997E-1,NaN,2.6207465E-1,7.6E1,NaN,NaN,1.4356093E0,1.1328454E2,2.9485487E1,5.0778328E1,1.8338196E1,8.0195465E1,-2.3789337E0,1.50327215E1,-1.3720783E0],"split_indices":[8,5,6,0,5,5,8,0,0,0,0,0,0,0,0],"split_type":[0,1,0,0,1,1,0,0,0,0,0,0,0,0,0],"sum_hessian":[2.38E3,2.8E1,2.352E3,3E0,2.5E1,1E1,2.342E3,2E0,1E0,1.8E1,7E0,6E0,4E0,8.4E1,2.258E3],"tree_param":{"num_deleted":"0","num_feature":"9","num_nodes":"15","size_leaf_vector":"1"}},{"base_weights":[1.0272152E0,4.7602594E2,-4.827434E0,9.330478E2,3.874062E2,1.9837114E2,-9.867701E0,1.0573223E2,2.8011213E1,4.596775E1,1.6733603E1,1.2780399E1,5.1725636E1,1.2876164E1,-1.5579256E0],"categories":[1,2,3,4,5,6,0,1,4],"categories_nodes":[1,4],"categories_segments":[0,6],"categories_sizes":[6,3],"default_left":[0,1,0,0,1,0,0,0,0,0,0,0,0,0,0],"id":10,"left_children":[1,3,5,7,9,11,13,-1,-1,-1,-1,-1,-1,-1,-1],"loss_changes":[6.6237415E6,8.130655E5,2.411841E6,2.8404E4,3.3660325E5,1.2165532E6,1.8207455E6,0E0,0E0,0E0,0E0,0E0,0E0,0E0,0E0],"parents":[2147483647,0,0,1,1,2,2,3,3,4,4,5,5,6,6],"right_children":[2,4,6,8,10,12,14,-1,-1,-1,-1,-1,-1,-1,-1],"split_conditions":[4.4954997E-1,NaN,7.84708E-1,7.6E1,NaN,2.11E2,1.5063659E0,1.0573223E2,2.8011213E1,4.596775E1,1.6733603E1,1.2780399E1,5.1725636E1,1.2876164E1,-1.5579256E0],"split_indices":[8,5,6,0,5,2,8,0,0,0,0,0,0,0,0],"split_type":[0,1,0,0,1,0,0,0,0,0,0,0,0,0,0],"sum_hessian":[2.38E3,2.8E1,2.352E3,3E0,2.5E1,5.6E1,2.296E3,2E0,1E0,1.8E1,7E0,4.7E1,9E0,9E1,2.206E3],"tree_param":{"num_deleted":"0","num_feature":"9","num_nodes":"15","size_leaf_vector":"1"}},{"base_weights":[1.0388446E0,3.759609E2,-5.2022986E0,6.3114856E2,2.6620142E2,4.3440353E2,-7.2727923E0,1.04508995E2,4.230405E1,3.7403774E1,1.2394552E1,8.25039E0,8.4018234E1,6.1151986E0,-1.5148138E0],"categories":[0,1,2,3,5,0,2,3],"categories_nodes":[3,4],"categories_segments":[0,5],"categories_sizes":[5,3],"default_left":[0,0,0,1,1,0,0,0,0,0,0,0,0,0,0],"id":11,"left_children":[1,3,5,7,9,11,13,-1,-1,-1,-1,-1,-1,-1,-1],"loss_changes":[5.5733585E6,9.243485E5,2.1357605E6,5.05475E5,3.9850988E5,1.501409E6,1.2581072E6,0E0,0E0,0E0,0E0,0E0,0E0,0E0,0E0],"parents":[2147483647,0,0,1,1,2,2,3,3,4,4,5,5,6,6],"right_children":[2,4,6,8,10,12,14,-1,-1,-1,-1,-1,-1,-1,-1],"split_conditions":[5.7639265E-1,2.1962188E-1,2.6207465E-1,NaN,NaN,1.82E2,3.419418E0,1.04508995E2,4.230405E1,3.7403774E1,1.2394552E1,8.25039E0,8.4018234E1,6.1151986E0,-1.5148138E0],"split_indices":[8,8,6,4,4,2,8,0,0,0,0,0,0,0,0],"split_type":[0,0,0,1,1,0,0,0,0,0,0,0,0,0,0],"sum_hessian":[2.38E3,3.8E1,2.342E3,1E1,2.8E1,1E1,2.332E3,2E0,8E0,1.5E1,1.3E1,6E0,4E0,2.4E2,2.092E3],"tree_param":{"num_deleted":"0","num_feature":"9","num_nodes":"15","size_leaf_vector":"1"}},{"base_weights":[1.0582184E0,2.3403871E2,-7.5636363E0,5.813803E2,1.7997476E2,1.5060414E2,-1.2823012E1,7.909674E1,2.7489653E1,1.2209756E1,2.7834543E1,7.121503E1,1.2511466E1,2.4844872E1,-1.49481E0],"categories":[0,2,5],"categories_nodes":[3],"categories_segments":[0],"categories_sizes":[3],"default_left":[0,0,0,1,0,0,0,0,0,0,0,0,0,0,0],"id":12,"left_children":[1,3,5,7,9,11,13,-1,-1,-1,-1,-1,-1,-1,-1],"loss_changes":[4.7845415E6,1.491552E6,1.9127222E6,4.8915175E5,3.93021E5,9.700999E5,1.2385349E6,0E0,0E0,0E0,0E0,0E0,0E0,0E0,0E0],"parents":[2147483647,0,0,1,1,2,2,3,3,4,4,5,5,6,6],"right_children":[2,4,6,8,10,12,14,-1,-1,-1,-1,-1,-1,-1,-1],"split_conditions":[1.038709E0,2.1962188E-1,1.0141711E0,NaN,1.08E2,6.3683033E-1,4.231066E-1,7.909674E1,2.7489653E1,1.2209756E1,2.7834543E1,7.121503E1,1.2511466E1,2.4844872E1,-1.49481E0],"split_indices":[8,8,6,4,3,7,7,0,0,0,0,0,0,0,0],"split_type":[0,0,0,1,0,0,0,0,0,0,0,0,0,0,0],"sum_hessian":[2.38E3,8.4E1,2.296E3,1E1,7.4E1,7.3E1,2.223E3,5E0,5E0,4.8E1,2.6E1,2E0,7.1E1,1.7E1,2.206E3],"tree_param":{"num_deleted":"0","num_feature":"9","num_nodes":"15","size_leaf_vector":"1"}},{"base_weights":[1.0589501E0,3.7081448E2,-3.498623E0,8.08723E1,2.8918185E2,2.823083E2,-5.946198E0,3.812683E1,1.6776709E1,1.3492104E1,8.3812706E1,4.330749E0,-1.5849617E0],"categories":[1,2,3,4,5,6],"categories_nodes":[1],"categories_segments":[0],"categories_sizes":[6],"default_left":[0,1,0,0,0,0,0,0,0,0,0,0,0],"id":13,"left_children":[1,3,5,-1,7,9,11,-1,-1,-1,-1,-1,-1],"loss_changes":[4.0137295E6,8.02813E5,1.6476818E6,0E0,2.2673275E5,1.5253315E6,1.1391645E6,0E0,0E0,0E0,0E0,0E0,0E0],"parents":[2147483647,0,0,1,1,2,2,4,4,5,5,6,6],"right_children":[2,4,6,-1,8,10,12,-1,-1,-1,-1,-1,-1],"split_conditions":[4.4954997E-1,NaN,3.3063176E-1,8.08723E1,1.3762187E1,2.09E2,5.183455E0,3.812683E1,1.6776709E1,1.3492104E1,8.3812706E1,4.330749E0,-1.5849617E0],"split_indices":[8,5,6,0,7,2,8,0,0,0,0,0,0],"split_type":[0,1,0,0,0,0,0,0,0,0,0,0,0],"sum_hessian":[2.38E3,2.8E1,2.352E3,3E0,2.5E1,1.9E1,2.333E3,1.3E1,1.2E1,1.6E1,3E0,3.9E2,1.943E3],"tree_param":{"num_deleted":"0","num_feature":"9","num_nodes":"13","size_leaf_vector":"1"}},{"base_weights":[1.0520995E0,1.9845274E2,-6.253128E0,5.00208E2,1.5154927E2,1.9606969E2,-9.561262E0,8.830197E1,3.1702545E1,1.8929216E1,3.0344331E0,1.3903183E1,6.3187416E1,8.311447E0,-1.497769E0],"categories":[0,1,2,3,5,0],"categories_nodes":[3,4],"categories_segments":[0,5],"categories_sizes":[5,1],"default_left":[0,0,0,1,1,0,0,0,0,0,0,0,0,0,0],"id":14,"left_children":[1,3,5,7,9,11,13,-1,-1,-1,-1,-1,-1,-1,-1],"loss_changes":[3.4347778E6,1.1272302E6,1.5392821E6,4.9142925E5,3.3735288E5,8.318715E5,1.1362021E6,0E0,0E0,0E0,0E0,0E0,0E0,0E0,0E0],"parents":[2147483647,0,0,1,1,2,2,3,3,4,4,5,5,6,6],"right_children":[2,4,6,8,10,12,14,-1,-1,-1,-1,-1,-1,-1,-1],"split_conditions":[1.038709E0,2.1962188E-1,6.3683033E-1,NaN,NaN,2.23E2,1.6557703E0,8.830197E1,3.1702545E1,1.8929216E1,3.0344331E0,1.3903183E1,6.3187416E1,8.311447E0,-1.497769E0],"split_indices":[8,8,7,4,4,2,6,0,0,0,0,0,0,0,0],"split_type":[0,0,0,1,1,0,0,0,0,0,0,0,0,0,0],"sum_hessian":[2.38E3,8.4E1,2.296E3,1E1,7.4E1,3.6E1,2.26E3,2E0,8E0,5.6E1,1.8E1,3.3E1,3E0,1.24E2,2.136E3],"tree_param":{"num_deleted":"0","num_feature":"9","num_nodes":"15","size_leaf_vector":"1"}},{"base_weights":[1.0417541E0,3.1347476E2,-2.809329E0,7.165286E2,2.3940976E2,2.4802345E2,-4.9575067E0,8.194357E1,2.0390364E1,2.945665E1,7.8486247E0,1.1407112E1,7.55315E1,3.2184598E0,-1.4895672E0],"categories":[1,2,3,4,5,6,0,1,4],"categories_nodes":[1,4],"categories_segments":[0,6],"categories_sizes":[6,3],"default_left":[0,1,0,0,1,0,0,0,0,0,0,0,0,0,0],"id":15,"left_children":[1,3,5,7,9,11,13,-1,-1,-1,-1,-1,-1,-1,-1],"loss_changes":[2.865713E6,6.9416975E5,1.2691045E6,4.3925125E4,2.07657E5,1.272898E6,8.620156E5,0E0,0E0,0E0,0E0,0E0,0E0,0E0,0E0],"parents":[2147483647,0,0,1,1,2,2,3,3,4,4,5,5,6,6],"right_children":[2,4,6,8,10,12,14,-1,-1,-1,-1,-1,-1,-1,-1],"split_conditions":[4.4954997E-1,NaN,3.3063176E-1,7.6E1,NaN,2.09E2,6.4903297E0,8.194357E1,2.0390364E1,2.945665E1,7.8486247E0,1.1407112E1,7.55315E1,3.2184598E0,-1.4895672E0],"split_indices":[8,5,6,0,5,2,8,0,0,0,0,0,0,0,0],"split_type":[0,1,0,0,1,0,0,0,0,0,0,0,0,0,0],"sum_hessian":[2.38E3,2.8E1,2.352E3,3E0,2.5E1,1.9E1,2.333E3,2E0,1E0,1.8E1,7E0,1.6E1,3E0,4.92E2,1.841E3],"tree_param":{"num_deleted":"0","num_feature":"9","num_nodes":"15","size_leaf_vector":"1"}},{"base_weights":[1.0334656E0,1.6910509E2,-5.186439E0,4.3151074E2,1.283642E2,1.7616568E2,-8.151872E0,7.8701836E1,2.650626E1,7.5461016E0,2.1961943E1,1.252193E1,5.6516853E1,7.6709723E0,-1.2693526E0],"categories":[0,1,2,3,5],"categories_nodes":[3],"categories_segments":[0],"categories_sizes":[5],"default_left":[0,0,0,1,0,0,0,0,0,0,0,0,0,0,0],"id":16,"left_children":[1,3,5,7,9,11,13,-1,-1,-1,-1,-1,-1,-1,-1],"loss_changes":[2.4899495E6,8.53314E5,1.2367336E6,4.4230012E5,3.4550412E5,6.625065E5,8.723903E5,0E0,0E0,0E0,0E0,0E0,0E0,0E0,0E0],"parents":[2147483647,0,0,1,1,2,2,3,3,4,4,5,5,6,6],"right_children":[2,4,6,8,10,12,14,-1,-1,-1,-1,-1,-1,-1,-1],"split_conditions":[1.038709E0,2.1962188E-1,6.3683033E-1,NaN,1.08E2,2.23E2,1.5245892E0,7.8701836E1,2.650626E1,7.5461016E0,2.1961943E1,1.252193E1,5.6516853E1,7.6709723E0,-1.2693526E0],"split_indices":[8,8,7,4,3,2,6,0,0,0,0,0,0,0,0],"split_type":[0,0,0,1,0,0,0,0,0,0,0,0,0,0,0],"sum_hessian":[2.38E3,8.4E1,2.296E3,1E1,7.4E1,3.6E1,2.26E3,2E0,8E0,4.8E1,2.6E1,3.3E1,3E0,1.14E2,2.146E3],"tree_param":{"num_deleted":"0","num_feature":"9","num_nodes":"15","size_leaf_vector":"1"}},{"base_weights":[1.0183828E0,1.9007138E2,-3.616903E0,3.9792407E2,1.3738094E2,1.2982275E2,-6.907213E0,7.345505E1,2.4150148E1,9.797477E0,3.172392E1,9.7716055E0,5.2278088E1,6.534364E0,-1.1183777E0],"categories":[0,1,2,3,5],"categories_nodes":[3],"categories_segments":[0],"categories_sizes":[5],"default_left":[0,0,0,1,0,0,0,0,0,0,0,0,0,0,0],"id":17,"left_children":[1,3,5,7,9,11,13,-1,-1,-1,-1,-1,-1,-1,-1],"loss_changes":[2.0871928E6,5.6958825E5,1.02170625E6,4.0182075E5,3.020323E5,6.554449E5,7.021276E5,0E0,0E0,0E0,0E0,0E0,0E0,0E0,0E0],"parents":[2147483647,0,0,1,1,2,2,3,3,4,4,5,5,6,6],"right_children":[2,4,6,8,10,12,14,-1,-1,-1,-1,-1,-1,-1,-1],"split_conditions":[7.210351E-1,2.1962188E-1,8.056475E-1,NaN,1.39E2,2.23E2,1.6557703E0,7.345505E1,2.4150148E1,9.797477E0,3.172392E1,9.7716055E0,5.2278088E1,6.534364E0,-1.1183777E0],"split_indices":[8,8,7,4,3,2,6,0,0,0,0,0,0,0,0],"split_type":[0,0,0,1,0,0,0,0,0,0,0,0,0,0,0],"sum_hessian":[2.38E3,5.6E1,2.324E3,1E1,4.6E1,5.5E1,2.269E3,2E0,8E0,3.9E1,7E0,5.2E1,3E0,1.26E2,2.143E3],"tree_param":{"num_deleted":"0","num_feature":"9","num_nodes":"15","size_leaf_vector":"1"}},{"base_weights":[1.0033114E0,2.991686E2,-1.5217983E0,5.553912E2,1.76735E2,1.4915189E2,-4.0496607E0,6.043216E1,1.5536957E1,2.8100937E1,5.0368757E0,1.0007055E1,4.628909E1,5.6481676E0,-9.776002E-1],"categories":[1,3,4,5,6],"categories_nodes":[1],"categories_segments":[0],"categories_sizes":[5],"default_left":[0,1,0,0,0,0,0,0,0,0,0,0,0,0,0],"id":18,"left_children":[1,3,5,7,9,11,13,-1,-1,-1,-1,-1,-1,-1,-1],"loss_changes":[1.7931104E6,5.29248E5,9.0024806E5,2.3546125E4,1.8349725E5,5.542286E5,8.0610425E5,0E0,0E0,0E0,0E0,0E0,0E0,0E0,0E0],"parents":[2147483647,0,0,1,1,2,2,3,3,4,4,5,5,6,6],"right_children":[2,4,6,8,10,12,14,-1,-1,-1,-1,-1,-1,-1,-1],"split_conditions":[3.5815495E-1,NaN,6.3683033E-1,1.03E2,1.3762187E1,2.23E2,2.8285072E0,6.043216E1,1.5536957E1,2.8100937E1,5.0368757E0,1.0007055E1,4.628909E1,5.6481676E0,-9.776002E-1],"split_indices":[8,5,7,3,7,2,8,0,0,0,0,0,0,0,0],"split_type":[0,1,0,0,0,0,0,0,0,0,0,0,0,0,0],"sum_hessian":[2.38E3,1.9E1,2.361E3,5E0,1.4E1,3.8E1,2.323E3,4E0,1E0,7E0,7E0,3.4E1,4E0,2E2,2.123E3],"tree_param":{"num_deleted":"0","num_feature":"9","num_nodes":"15","size_leaf_vector":"1"}},{"base_weights":[9.744099E-1,1.3203624E2,-3.8759296E0,2.6001874E2,7.741987E1,2.0662395E2,-5.7223396E0,4.3260357E1,1.688689E1,1.2842585E0,1.5307014E1,3.580125E1,-1.2567086E1,2.6697607E1,-6.8010014E-1],"categories":[1,2,3,4,6,1,4,6],"categories_nodes":[1,5],"categories_segments":[0,5],"categories_sizes":[5,3],"default_left":[0,1,0,0,0,1,0,0,0,0,0,0,0,0,0],"id":19,"left_children":[1,3,5,7,9,11,13,-1,-1,-1,-1,-1,-1,-1,-1],"loss_changes":[1.5141E6,5.7401425E5,8.939552E5,3.2022375E5,2.960368E5,1.0511044E6,6.718882E5,0E0,0E0,0E0,0E0,0E0,0E0,0E0,0E0],"parents":[2147483647,0,0,1,1,2,2,3,3,4,4,5,5,6,6],"right_children":[2,4,6,8,10,12,14,-1,-1,-1,-1,-1,-1,-1,-1],"split_conditions":[1.038709E0,NaN,3.3063176E-1,3.5815495E-1,1.02E2,NaN,2.6561737E-1,4.3260357E1,1.688689E1,1.2842585E0,1.5307014E1,3.580125E1,-1.2567086E1,2.6697607E1,-6.8010014E-1],"split_indices":[8,5,6,8,3,5,7,0,0,0,0,0,0,0,0],"split_type":[0,1,0,0,0,1,0,0,0,0,0,0,0,0,0],"sum_hessian":[2.38E3,8.4E1,2.296E3,2.4E1,6E1,1.9E1,2.277E3,7E0,1.7E1,3.3E1,2.7E1,1.3E1,6E0,8E0,2.269E3],"tree_param":{"num_deleted":"0","num_feature":"9","num_nodes":"15","size_leaf_vector":"1"}},{"base_weights":[9.29883E-1,2.552897E2,-1.2242773E0,4.881182E2,1.45139E2,1.1171676E2,-4.015437E0,7.132171E1,3.0045502E1,2.3429773E1,3.7837906E0,2.131563E1,-8.8885146E-1,2.4390702E0,-1.2926466E0],"categories":[1,3,4,5,6,1,4,6],"categories_nodes":[1,5],"categories_segments":[0,5],"categories_sizes":[5,3],"default_left":[0,1,0,0,0,1,0,0,0,0,0,0,0,0,0],"id":20,"left_children":[1,3,5,7,9,11,13,-1,-1,-1,-1,-1,-1,-1,-1],"loss_changes":[1.3049382E6,4.4207938E5,7.450372E5,3.9167125E4,1.346371E5,6.992408E5,5.840283E5,0E0,0E0,0E0,0E0,0E0,0E0,0E0,0E0],"parents":[2147483647,0,0,1,1,2,2,3,3,4,4,5,5,6,6],"right_children":[2,4,6,8,10,12,14,-1,-1,-1,-1,-1,-1,-1,-1],"split_conditions":[3.5815495E-1,NaN,7.84708E-1,1.53E2,1.3762187E1,NaN,7.201569E0,7.132171E1,3.0045502E1,2.3429773E1,3.7837906E0,2.131563E1,-8.8885146E-1,2.4390702E0,-1.2926466E0],"split_indices":[8,5,6,2,7,5,8,0,0,0,0,0,0,0,0],"split_type":[0,1,0,0,0,1,0,0,0,0,0,0,0,0,0],"sum_hessian":[2.38E3,1.9E1,2.361E3,5E0,1.4E1,5.6E1,2.305E3,1E0,4E0,7E0,7E0,3E1,2.6E1,5.5E2,1.755E3],"tree_param":{"num_deleted":"0","num_feature":"9","num_nodes":"15","size_leaf_vector":"1"}},{"base_weights":[8.999589E-1,1.2915747E2,-2.8124182E0,1.9091966E2,2.7028384E0,2.4501361E2,-3.993882E0,1.1438665E1,2.808666E1,-2.412277E0,1.0409958E1,3.2500045E0,6.0878735E1,2.435646E1,-4.9621153E-1],"categories":[1,4],"categories_nodes":[1],"categories_segments":[0],"categories_sizes":[2],"default_left":[0,1,0,0,0,0,0,0,0,0,0,0,0,0,0],"id":21,"left_children":[1,3,5,7,9,11,13,-1,-1,-1,-1,-1,-1,-1,-1],"loss_changes":[1.1340532E6,5.2276175E5,6.788046E5,2.7764862E5,6.5071844E4,8.305897E5,5.5370425E5,0E0,0E0,0E0,0E0,0E0,0E0,0E0,0E0],"parents":[2147483647,0,0,1,1,2,2,3,3,4,4,5,5,6,6],"right_children":[2,4,6,8,10,12,14,-1,-1,-1,-1,-1,-1,-1,-1],"split_conditions":[8.450734E-1,NaN,2.6207465E-1,9.8E1,1.29E2,2.01E2,2.6561737E-1,1.1438665E1,2.808666E1,-2.412277E0,1.0409958E1,3.2500045E0,6.0878735E1,2.435646E1,-4.9621153E-1],"split_indices":[8,5,6,3,3,2,7,0,0,0,0,0,0,0,0],"split_type":[0,1,0,0,0,0,0,0,0,0,0,0,0,0,0],"sum_hessian":[2.38E3,6.6E1,2.314E3,4.4E1,2.2E1,1E1,2.304E3,2.5E1,1.9E1,1.8E1,4E0,7E0,3E0,8E0,2.296E3],"tree_param":{"num_deleted":"0","num_feature":"9","num_nodes":"15","size_leaf_vector":"1"}},{"base_weights":[8.668769E-1,2.2245767E2,-1.0097882E0,6.635128E1,1.6432253E2,1.03108154E2,-3.5829508E0,2.0699217E1,3.4490725E-1,6.0178385E0,2.9886026E1,3.253453E0,-9.166894E-1],"categories":[0,1,2,3,5,6,1,4],"categories_nodes":[1,4],"categories_segments":[0,6],"categories_sizes":[6,2],"default_left":[0,1,0,0,1,0,0,0,0,0,0,0,0],"id":22,"left_children":[1,3,5,-1,7,9,11,-1,-1,-1,-1,-1,-1],"loss_changes":[9.9036756E5,4.0378612E5,6.3317856E5,0E0,1.2970994E5,4.6101988E5,4.653676E5,0E0,0E0,0E0,0E0,0E0,0E0],"parents":[2147483647,0,0,1,1,2,2,4,4,5,5,6,6],"right_children":[2,4,6,-1,8,10,12,-1,-1,-1,-1,-1,-1],"split_conditions":[3.5815495E-1,NaN,8.056475E-1,6.635128E1,NaN,2.15E2,4.2053366E0,2.0699217E1,3.4490725E-1,6.0178385E0,2.9886026E1,3.253453E0,-9.166894E-1],"split_indices":[8,4,7,0,5,2,8,0,0,0,0,0,0],"split_type":[0,1,0,0,1,0,0,0,0,0,0,0,0],"sum_hessian":[2.38E3,1.9E1,2.361E3,1E0,1.8E1,5.6E1,2.305E3,1.4E1,4E0,4.7E1,9E0,3.08E2,1.997E3],"tree_param":{"num_deleted":"0","num_feature":"9","num_nodes":"13","size_leaf_vector":"1"}},{"base_weights":[8.329562E-1,2.0458168E2,-8.9261854E-1,6.303372E1,1.4899785E2,8.1098915E1,-3.9516122E0,1.876729E1,3.1731448E-1,1.5240516E1,8.579515E-2,1.9459534E1,-4.9128404E-1],"categories":[0,1,2,3,5,6,1,4,1,4,6],"categories_nodes":[1,4,5],"categories_segments":[0,6,8],"categories_sizes":[6,2,3],"default_left":[0,1,0,0,1,1,0,0,0,0,0,0,0],"id":23,"left_children":[1,3,5,-1,7,9,11,-1,-1,-1,-1,-1,-1],"loss_changes":[8.373032E5,3.793835E5,5.9273744E5,0E0,1.0656028E5,4.862122E5,4.357097E5,0E0,0E0,0E0,0E0,0E0,0E0],"parents":[2147483647,0,0,1,1,2,2,4,4,5,5,6,6],"right_children":[2,4,6,-1,8,10,12,-1,-1,-1,-1,-1,-1],"split_conditions":[3.5815495E-1,NaN,1.1606455E0,6.303372E1,NaN,NaN,2.6561737E-1,1.876729E1,3.1731448E-1,1.5240516E1,8.579515E-2,1.9459534E1,-4.9128404E-1],"split_indices":[8,4,6,0,5,5,7,0,0,0,0,0,0],"split_type":[0,1,0,0,1,1,0,0,0,0,0,0,0],"sum_hessian":[2.38E3,1.9E1,2.361E3,1E0,1.8E1,8.4E1,2.277E3,1.4E1,4E0,4.4E1,4E1,1E1,2.267E3],"tree_param":{"num_deleted":"0","num_feature":"9","num_nodes":"13","size_leaf_vector":"1"}},{"base_weights":[7.9855263E-1,9.20641E1,-2.5790575E0,1.4783917E2,4.0532928E0,2.1364383E2,-3.6179173E0,3.6393505E1,1.1174112E1,-2.7283893E0,1.09309635E1,2.1939151E0,5.4364223E1,1.9396383E1,-4.3965998E-1],"categories":[1,4,6],"categories_nodes":[1],"categories_segments":[0],"categories_sizes":[3],"default_left":[0,1,0,0,0,0,0,0,0,0,0,0,0,0,0],"id":24,"left_children":[1,3,5,7,9,11,13,-1,-1,-1,-1,-1,-1,-1,-1],"loss_changes":[7.342031E5,4.166495E5,5.1673722E5,3.6496675E5,1.15129266E5,6.839575E5,3.527157E5,0E0,0E0,0E0,0E0,0E0,0E0,0E0,0E0],"parents":[2147483647,0,0,1,1,2,2,3,3,4,4,5,5,6,6],"right_children":[2,4,6,8,10,12,14,-1,-1,-1,-1,-1,-1,-1,-1],"split_conditions":[1.038709E0,NaN,2.6207465E-1,2.1962188E-1,1.35E2,2.01E2,2.6561737E-1,3.6393505E1,1.1174112E1,-2.7283893E0,1.09309635E1,2.1939151E0,5.4364223E1,1.9396383E1,-4.3965998E-1],"split_indices":[8,5,6,8,3,2,7,0,0,0,0,0,0,0,0],"split_type":[0,1,0,0,0,0,0,0,0,0,0,0,0,0,0],"sum_hessian":[2.38E3,8.4E1,2.296E3,5.1E1,3.3E1,1E1,2.286E3,6E0,4.5E1,2.6E1,7E0,7E0,3E0,8E0,2.278E3],"tree_param":{"num_deleted":"0","num_feature":"9","num_nodes":"15","size_leaf_vector":"1"}},{"base_weights":[7.738357E-1,5.98268E1,-3.736207E0,1.0646429E2,-6.045568E0,4.680548E1,-8.126066E0,3.327406E1,8.828796E0,-3.003317E0,9.376347E0,8.609009E0,9.5741636E-1,1.767226E1,-8.941991E-1],"categories":[1,4,6,1,4,6],"categories_nodes":[1,5],"categories_segments":[0,3],"categories_sizes":[3,3],"default_left":[0,1,0,0,0,1,0,0,0,0,0,0,0,0,0],"id":25,"left_children":[1,3,5,7,9,11,13,-1,-1,-1,-1,-1,-1,-1,-1],"loss_changes":[6.3435856E5,5.198322E5,4.9138062E5,3.7779738E5,1.7280277E5,2.5805906E5,3.0880597E5,0E0,0E0,0E0,0E0,0E0,0E0,0E0,0E0],"parents":[2147483647,0,0,1,1,2,2,3,3,4,4,5,5,6,6],"right_children":[2,4,6,8,10,12,14,-1,-1,-1,-1,-1,-1,-1,-1],"split_conditions":[2.0339317E0,NaN,2.54983E0,2.1962188E-1,1.35E2,NaN,2.6561737E-1,3.327406E1,8.828796E0,-3.003317E0,9.376347E0,8.609009E0,9.5741636E-1,1.767226E1,-8.941991E-1],"split_indices":[8,5,6,8,3,5,7,0,0,0,0,0,0,0,0],"split_type":[0,1,0,0,0,1,0,0,0,0,0,0,0,0,0],"sum_hessian":[2.38E3,1.68E2,2.212E3,9.8E1,7E1,1.76E2,2.036E3,6E0,9.2E1,5.7E1,1.3E1,8.5E1,9.1E1,8E0,2.028E3],"tree_param":{"num_deleted":"0","num_feature":"9","num_nodes":"15","size_leaf_vector":"1"}},{"base_weights":[7.278757E-1,8.8421265E1,-1.8104333E0,2.8498886E2,6.0738567E1,1.9166151E2,-2.7329412E0,4.4181892E1,1.0252704E1,1.7959975E0,1.4539775E1,3.713525E1,-9.823814E0,8.4130305E-1,-1.2756556E0],"categories":[1,2,3,4,5,6,1,4,5,6],"categories_nodes":[1,5],"categories_segments":[0,6],"categories_sizes":[6,4],"default_left":[0,1,0,0,0,1,0,0,0,0,0,0,0,0,0],"id":26,"left_children":[1,3,5,7,9,11,13,-1,-1,-1,-1,-1,-1,-1,-1],"loss_changes":[5.301538E5,3.4727216E5,4.1370366E5,1.8362556E5,2.1468473E5,6.094969E5,2.5762869E5,0E0,0E0,0E0,0E0,0E0,0E0,0E0,0E0],"parents":[2147483647,0,0,1,1,2,2,3,3,4,4,5,5,6,6],"right_children":[2,4,6,8,10,12,14,-1,-1,-1,-1,-1,-1,-1,-1],"split_conditions":[8.450734E-1,NaN,2.6207465E-1,1.69E2,1.08E2,NaN,1.4437186E1,4.4181892E1,1.0252704E1,1.7959975E0,1.4539775E1,3.713525E1,-9.823814E0,8.4130305E-1,-1.2756556E0],"split_indices":[8,5,6,2,3,5,8,0,0,0,0,0,0,0,0],"split_type":[0,1,0,0,0,1,0,0,0,0,0,0,0,0,0],"sum_hessian":[2.38E3,6.6E1,2.314E3,7E0,5.9E1,1E1,2.304E3,3E0,4E0,4E1,1.9E1,6E0,4E0,1.091E3,1.213E3],"tree_param":{"num_deleted":"0","num_feature":"9","num_nodes":"15","size_leaf_vector":"1"}},{"base_weights":[6.9609773E-1,1.524636E2,-5.8927315E-1,5.4189552E1,1.0344636E2,8.1708755E1,-2.6232708E0,1.3861096E1,2.336262E0,4.6301455E0,2.434929E1,1.7698212E0,-8.937605E-1],"categories":[0,1,2,3,5,6,1,3,4],"categories_nodes":[1,4],"categories_segments":[0,6],"categories_sizes":[6,3],"default_left":[0,1,0,0,1,0,0,0,0,0,0,0,0],"id":27,"left_children":[1,3,5,-1,7,9,11,-1,-1,-1,-1,-1,-1],"loss_changes":[4.645694E5,3.2572044E5,3.9559894E5,0E0,5.026783E4,3.1524128E5,2.9605634E5,0E0,0E0,0E0,0E0,0E0,0E0],"parents":[2147483647,0,0,1,1,2,2,4,4,5,5,6,6],"right_children":[2,4,6,-1,8,10,12,-1,-1,-1,-1,-1,-1],"split_conditions":[3.5815495E-1,NaN,8.056475E-1,5.4189552E1,NaN,2.15E2,7.4451275E0,1.3861096E1,2.336262E0,4.6301455E0,2.434929E1,1.7698212E0,-8.937605E-1],"split_indices":[8,4,7,0,5,2,8,0,0,0,0,0,0],"split_type":[0,1,0,0,1,0,0,0,0,0,0,0,0],"sum_hessian":[2.38E3,1.9E1,2.361E3,1E0,1.8E1,5.6E1,2.305E3,1.2E1,6E0,4.7E1,9E0,5.46E2,1.759E3],"tree_param":{"num_deleted":"0","num_feature":"9","num_nodes":"13","size_leaf_vector":"1"}},{"base_weights":[6.685891E-1,1.1685426E2,-7.636476E-1,3.7575473E2,7.252903E1,6.4666115E1,-3.214404E0,4.5390186E1,7.0656676E0,1.2679767E1,2.4278853E0,4.9436564E0,3.6070538E1,1.0794287E0,-1.1363562E0],"categories":[1,2,3,4,5,6,0,2,5],"categories_nodes":[1,4],"categories_segments":[0,6],"categories_sizes":[6,3],"default_left":[0,1,0,0,1,0,0,0,0,0,0,0,0,0,0],"id":28,"left_children":[1,3,5,7,9,11,13,-1,-1,-1,-1,-1,-1,-1,-1],"loss_changes":[3.9630047E5,3.0554578E5,3.775171E5,6.3298938E4,6.5001734E4,3.653943E5,2.5914952E5,0E0,0E0,0E0,0E0,0E0,0E0,0E0,0E0],"parents":[2147483647,0,0,1,1,2,2,3,3,4,4,5,5,6,6],"right_children":[2,4,6,8,10,12,14,-1,-1,-1,-1,-1,-1,-1,-1],"split_conditions":[4.4954997E-1,NaN,1.1606455E0,7.6E1,NaN,2.24E2,1.1045097E1,4.5390186E1,7.0656676E0,1.2679767E1,2.4278853E0,4.9436564E0,3.6070538E1,1.0794287E0,-1.1363562E0],"split_indices":[8,5,6,0,4,2,8,0,0,0,0,0,0,0,0],"split_type":[0,1,0,0,1,0,0,0,0,0,0,0,0,0,0],"sum_hessian":[2.38E3,2.8E1,2.352E3,3E0,2.5E1,8.4E1,2.268E3,2E0,1E0,1.1E1,1.4E1,8.1E1,3E0,8.34E2,1.434E3],"tree_param":{"num_deleted":"0","num_feature":"9","num_nodes":"15","size_leaf_vector":"1"}},{"base_weights":[6.4730805E-1,1.1340288E1,-1.3317337E1,2.3144226E2,9.025343E0,-4.1006446E0,-2.5296062E1,1.3066829E1,4.507101E1,1.0382516E1,4.4863033E-1,1.6722776E1,-4.9752322E-1,-1.0923107E1,-2.352574E0],"categories":[1,4,6,0,1,2],"categories_nodes":[0,2],"categories_segments":[0,3],"categories_sizes":[3,3],"default_left":[1,0,1,0,0,0,0,0,0,0,0,0,0,0,0],"id":29,"left_children":[1,3,5,7,9,11,13,-1,-1,-1,-1,-1,-1,-1,-1],"loss_changes":[3.5569072E5,6.852593E5,1.1394381E5,2.5045738E5,5.7441506E5,8.848939E4,6.4148E4,0E0,0E0,0E0,0E0,0E0,0E0,0E0,0E0],"parents":[2147483647,0,0,1,1,2,2,3,3,4,4,5,5,6,6],"right_children":[2,4,6,8,10,12,14,-1,-1,-1,-1,-1,-1,-1,-1],"split_conditions":[NaN,3.3063176E-1,NaN,2.09E2,1.2152761E0,2.6561737E-1,5.4986936E-1,1.3066829E1,4.507101E1,1.0382516E1,4.4863033E-1,1.6722776E1,-4.9752322E-1,-1.0923107E1,-2.352574E0],"split_indices":[5,6,4,2,8,7,6,0,0,0,0,0,0,0,0],"split_type":[1,0,1,0,0,0,0,0,0,0,0,0,0,0,0],"sum_hessian":[2.38E3,1.348E3,1.032E3,1.3E1,1.335E3,5.84E2,4.48E2,1E1,3E0,6E1,1.275E3,2E0,5.82E2,8E0,4.4E2],"tree_param":{"num_deleted":"0","num_feature":"9","num_nodes":"15","size_leaf_vector":"1"}},{"base_weights":[6.1278194E-1,1.7136646E2,-1.796699E-1,4.1646324E1,7.062682E1,7.183729E1,-1.952796E0,-9.866022E0,1.0412024E1,5.1030216E0,2.7802479E1,1.8596461E0,-7.01717E-1],"categories":[0,1,2,3,5],"categories_nodes":[1],"categories_segments":[0],"categories_sizes":[5],"default_left":[0,1,0,0,0,0,0,0,0,0,0,0,0],"id":30,"left_children":[1,3,5,-1,7,9,11,-1,-1,-1,-1,-1,-1],"loss_changes":[3.2221356E5,2.421871E5,3.029055E5,0E0,6.1302527E4,2.3035134E5,2.410505E5,0E0,0E0,0E0,0E0,0E0,0E0],"parents":[2147483647,0,0,1,1,2,2,4,4,5,5,6,6],"right_children":[2,4,6,-1,8,10,12,-1,-1,-1,-1,-1,-1],"split_conditions":[2.1962188E-1,NaN,8.056475E-1,4.1646324E1,1.6E1,2.23E2,5.777749E0,-9.866022E0,1.0412024E1,5.1030216E0,2.7802479E1,1.8596461E0,-7.01717E-1],"split_indices":[8,4,7,0,0,2,6,0,0,0,0,0,0],"split_type":[0,1,0,0,0,0,0,0,0,0,0,0,0],"sum_hessian":[2.38E3,1E1,2.37E3,2E0,8E0,5.6E1,2.314E3,1E0,7E0,5.2E1,4E0,4.57E2,1.857E3],"tree_param":{"num_deleted":"0","num_feature":"9","num_nodes":"13","size_leaf_vector":"1"}},{"base_weights":[5.835306E-1,1.352337E1,-8.99181E0,2.3269772E2,1.0885031E1,-1.5321234E1,8.395442E0,1.1080723E1,4.4877693E1,9.728595E0,6.530969E-1,-9.0087366E-1,-2.903639E0,6.9149103E0,1.7624296E-1],"categories":[1,2,4,6,0,1],"categories_nodes":[0,5],"categories_segments":[0,4],"categories_sizes":[4,2],"default_left":[1,0,0,0,0,1,0,0,0,0,0,0,0,0,0],"id":31,"left_children":[1,3,5,7,9,11,13,-1,-1,-1,-1,-1,-1,-1,-1],"loss_changes":[2.951355E5,5.832407E5,1.5078884E5,2.663283E5,3.7631188E5,8.666164E4,1.4736875E5,0E0,0E0,0E0,0E0,0E0,0E0,0E0,0E0],"parents":[2147483647,0,0,1,1,2,2,3,3,4,4,5,5,6,6],"right_children":[2,4,6,8,10,12,14,-1,-1,-1,-1,-1,-1,-1,-1],"split_conditions":[NaN,3.3063176E-1,1.29E2,1.27E2,1.2152761E0,NaN,2.8285072E0,1.1080723E1,4.4877693E1,9.728595E0,6.530969E-1,-9.0087366E-1,-2.903639E0,6.9149103E0,1.7624296E-1],"split_indices":[5,6,3,3,8,4,8,0,0,0,0,0,0,0,0],"split_type":[1,0,0,0,0,1,0,0,0,0,0,0,0,0,0],"sum_hessian":[2.38E3,1.012E3,1.368E3,1.1E1,1.001E3,1.003E3,3.65E2,8E0,3E0,4.7E1,9.54E2,6.88E2,3.15E2,3.5E1,3.3E2],"tree_param":{"num_deleted":"0","num_feature":"9","num_nodes":"15","size_leaf_vector":"1"}},{"base_weights":[5.5442077E-1,1.5352444E2,-1.5550107E-1,4.6122707E1,7.6631485E1,6.428247E1,-1.7420276E0,1.3682914E1,1.3694866E0,3.154724E1,4.9412436E0,2.5401218E0,-4.937592E-1],"categories":[0,1,2,3,5,6],"categories_nodes":[1],"categories_segments":[0],"categories_sizes":[6],"default_left":[0,1,0,0,0,0,0,0,0,0,0,0,0],"id":32,"left_children":[1,3,5,-1,7,9,11,-1,-1,-1,-1,-1,-1],"loss_changes":[2.5859277E5,2.2491731E5,2.4250536E5,0E0,3.6012508E4,1.9731836E5,2.0092388E5,0E0,0E0,0E0,0E0,0E0,0E0],"parents":[2147483647,0,0,1,1,2,2,4,4,5,5,6,6],"right_children":[2,4,6,-1,8,10,12,-1,-1,-1,-1,-1,-1],"split_conditions":[2.1962188E-1,NaN,8.056475E-1,4.6122707E1,1.1786688E1,2.6207465E-1,3.110999E0,1.3682914E1,1.3694866E0,3.154724E1,4.9412436E0,2.5401218E0,-4.937592E-1],"split_indices":[8,4,7,0,7,6,6,0,0,0,0,0,0],"split_type":[0,1,0,0,0,0,0,0,0,0,0,0,0],"sum_hessian":[2.38E3,1E1,2.37E3,1E0,9E0,5.6E1,2.314E3,4E0,5E0,2E0,5.4E1,2.43E2,2.071E3],"tree_param":{"num_deleted":"0","num_feature":"9","num_nodes":"13","size_leaf_vector":"1"}},{"base_weights":[5.408563E-1,9.357257E0,-1.097305E1,1.8638297E2,7.4951935E0,-1.6201122E1,5.2941113E0,1.0097449E1,3.7466053E1,5.9835477E0,1.9475912E-1,-1.2458903E1,-1.5343299E0,4.803892E0,1.6400509E-2],"categories":[1,4,6],"categories_nodes":[0],"categories_segments":[0],"categories_sizes":[3],"default_left":[1,0,0,0,0,0,0,0,0,0,0,0,0,0,0],"id":33,"left_children":[1,3,5,7,9,11,13,-1,-1,-1,-1,-1,-1,-1,-1],"loss_changes":[2.4180089E5,4.4327816E5,8.793814E4,1.8729581E5,3.878085E5,7.079695E4,5.5252047E4,0E0,0E0,0E0,0E0,0E0,0E0,0E0,0E0],"parents":[2147483647,0,0,1,1,2,2,3,3,4,4,5,5,6,6],"right_children":[2,4,6,8,10,12,14,-1,-1,-1,-1,-1,-1,-1,-1],"split_conditions":[NaN,3.3063176E-1,1.29E2,2.09E2,2.8285072E0,3.3063176E-1,2.6583757E0,1.0097449E1,3.7466053E1,5.9835477E0,1.9475912E-1,-1.2458903E1,-1.5343299E0,4.803892E0,1.6400509E-2],"split_indices":[5,6,3,2,8,6,6,0,0,0,0,0,0,0,0],"split_type":[1,0,0,0,0,0,0,0,0,0,0,0,0,0,0],"sum_hessian":[2.38E3,1.348E3,1.032E3,1.3E1,1.335E3,7.81E2,2.51E2,1E1,3E0,1.27E2,1.208E3,5E0,7.76E2,2.6E1,2.25E2],"tree_param":{"num_deleted":"0","num_feature":"9","num_nodes":"15","size_leaf_vector":"1"}},{"base_weights":[5.054892E-1,-9.085724E0,1.006412E1,-5.6724887E0,-2.8698986E1,9.0694984E1,5.4885097E0,1.1771024E1,-6.277678E-1,-9.156237E0,-2.4762862E0,1.3167645E1,3.33018E0,1.1721332E1,3.574607E-1],"categories":[1,1,4,6],"categories_nodes":[1,5],"categories_segments":[0,1],"categories_sizes":[1,3],"default_left":[0,1,0,0,0,1,0,0,0,0,0,0,0,0,0],"id":34,"left_children":[1,3,5,7,9,11,13,-1,-1,-1,-1,-1,-1,-1,-1],"loss_changes":[2.183788E5,7.943441E4,4.3964212E5,7.645422E4,4.1281766E4,1.461465E5,2.4120936E5,0E0,0E0,0E0,0E0,0E0,0E0,0E0,0E0],"parents":[2147483647,0,0,1,1,2,2,3,3,4,4,5,5,6,6],"right_children":[2,4,6,8,10,12,14,-1,-1,-1,-1,-1,-1,-1,-1],"split_conditions":[1.01E2,NaN,1.7888731E0,2.6561737E-1,1.2152761E0,NaN,6.3683033E-1,1.1771024E1,-6.277678E-1,-9.156237E0,-2.4762862E0,1.3167645E1,3.33018E0,1.1721332E1,3.574607E-1],"split_indices":[3,5,8,7,8,5,7,0,0,0,0,0,0,0,0],"split_type":[0,1,0,0,0,1,0,0,0,0,0,0,0,0,0],"sum_hessian":[2.38E3,1.188E3,1.192E3,1.013E3,1.75E2,6.3E1,1.129E3,4E0,1.009E3,9E0,1.66E2,3.6E1,2.7E1,1.8E1,1.111E3],"tree_param":{"num_deleted":"0","num_feature":"9","num_nodes":"15","size_leaf_vector":"1"}},{"base_weights":[4.6673754E-1,1.390047E2,-1.7619133E-1,4.2858997E1,6.718718E1,7.478015E0,-1.0462302E1,1.2271201E1,9.718628E-1,1.8422928E1,5.635405E-1,4.655355E-1,-1.6482385E0],"categories":[0,1,2,3,5,6,0,1,2,1,2,3,4,6],"categories_nodes":[1,2,6],"categories_segments":[0,6,9],"categories_sizes":[6,3,5],"default_left":[0,1,1,0,0,0,1,0,0,0,0,0,0],"id":35,"left_children":[1,3,5,-1,7,9,11,-1,-1,-1,-1,-1,-1],"loss_changes":[2.1210031E5,1.9997452E5,1.8675186E5,0E0,3.0716723E4,4.418916E5,9.217839E4,0E0,0E0,0E0,0E0,0E0,0E0],"parents":[2147483647,0,0,1,1,2,2,4,4,5,5,6,6],"right_children":[2,4,6,-1,8,10,12,-1,-1,-1,-1,-1,-1],"split_conditions":[2.1962188E-1,NaN,NaN,4.2858997E1,1.1786688E1,4.6684724E-1,NaN,1.2271201E1,9.718628E-1,1.8422928E1,5.635405E-1,4.655355E-1,-1.6482385E0],"split_indices":[8,4,4,0,7,6,5,0,0,0,0,0,0],"split_type":[0,1,1,0,0,0,1,0,0,0,0,0,0],"sum_hessian":[2.38E3,1E1,2.37E3,1E0,9E0,1.359E3,1.011E3,4E0,5E0,1.3E1,1.346E3,2.88E2,7.23E2],"tree_param":{"num_deleted":"0","num_feature":"9","num_nodes":"13","size_leaf_vector":"1"}},{"base_weights":[4.5110342E-1,9.809316E1,-3.7586197E-1,4.0716053E1,6.0396957E1,-5.612899E0,1.41562605E1,1.1356109E1,1.9921122E0,1.0991867E1,-6.278236E-1,2.5235521E1,1.1832026E0],"categories":[0,1,2,3,5,6],"categories_nodes":[1],"categories_segments":[0],"categories_sizes":[6],"default_left":[0,1,0,0,0,0,0,0,0,0,0,0,0],"id":36,"left_children":[1,3,5,-1,7,9,11,-1,-1,-1,-1,-1,-1],"loss_changes":[1.9229453E5,2.0842208E5,1.7984006E5,0E0,3.8623125E4,1.3420888E5,3.4358672E5,0E0,0E0,0E0,0E0,0E0,0E0],"parents":[2147483647,0,0,1,1,2,2,4,4,5,5,6,6],"right_children":[2,4,6,-1,8,10,12,-1,-1,-1,-1,-1,-1],"split_conditions":[3.5815495E-1,NaN,1.29E2,4.0716053E1,1.1786688E1,2.6561737E-1,3.3063176E-1,1.1356109E1,1.9921122E0,1.0991867E1,-6.278236E-1,2.5235521E1,1.1832026E0],"split_indices":[8,4,3,0,7,7,6,0,0,0,0,0,0],"split_type":[0,1,0,0,0,0,0,0,0,0,0,0,0],"sum_hessian":[2.38E3,1.9E1,2.361E3,1E0,1.8E1,1.736E3,6.25E2,7E0,1.1E1,9E0,1.727E3,5E0,6.2E2],"tree_param":{"num_deleted":"0","num_feature":"9","num_nodes":"13","size_leaf_vector":"1"}},{"base_weights":[4.4414842E-1,1.5754762E1,-4.5629683E0,2.20474E2,1.3971998E1,1.0379561E1,-1.1120615E1,8.219126E0,3.868025E1,3.2913792E0,1.1774626E-1,2.4003408E0,-7.334965E-1,3.902189E0,-1.3774794E0],"categories":[0,1,2,3,1,4,6],"categories_nodes":[4,5],"categories_segments":[0,4],"categories_sizes":[4,3],"default_left":[0,0,0,0,1,1,0,0,0,0,0,0,0,0,0],"id":37,"left_children":[1,3,5,7,9,11,13,-1,-1,-1,-1,-1,-1,-1,-1],"loss_changes":[1.8260419E5,2.1115453E5,1.7600356E5,8.3210016E4,1.4125212E5,1.3243038E5,1.6663038E5,0E0,0E0,0E0,0E0,0E0,0E0,0E0,0E0],"parents":[2147483647,0,0,1,1,2,2,3,3,4,4,5,5,6,6],"right_children":[2,4,6,8,10,12,14,-1,-1,-1,-1,-1,-1,-1,-1],"split_conditions":[7.219981E0,2.1962188E-1,9.465049E0,5.8E1,NaN,NaN,1.7741095E0,8.219126E0,3.868025E1,3.2913792E0,1.1774626E-1,2.4003408E0,-7.334965E-1,3.902189E0,-1.3774794E0],"split_indices":[6,8,8,0,4,5,7,0,0,0,0,0,0,0,0],"split_type":[0,0,0,0,1,1,0,0,0,0,0,0,0,0,0],"sum_hessian":[2.38E3,5.86E2,1.794E3,4E0,5.82E2,5.47E2,1.247E3,3E0,1E0,2.34E2,3.48E2,3.09E2,2.38E2,6.2E1,1.185E3],"tree_param":{"num_deleted":"0","num_feature":"9","num_nodes":"15","size_leaf_vector":"1"}},{"base_weights":[4.2262346E-1,9.988574E0,-6.6560693E0,1.7343971E2,8.021107E0,-1.5300491E0,-1.8314718E1,-2.7219453E0,2.433505E1,8.548694E0,5.29473E-1,1.9489836E0,-4.8780718E-1,-5.6803975E0,-1.5192343E0],"categories":[1,2,4,6,0,1],"categories_nodes":[0,2],"categories_segments":[0,4],"categories_sizes":[4,2],"default_left":[1,0,1,0,0,0,0,0,0,0,0,0,0,0,0],"id":38,"left_children":[1,3,5,7,9,11,13,-1,-1,-1,-1,-1,-1,-1,-1],"loss_changes":[1.6129453E5,3.2437425E5,8.178681E4,1.7496278E5,2.1117083E5,6.7092125E4,4.9371375E4,0E0,0E0,0E0,0E0,0E0,0E0,0E0,0E0],"parents":[2147483647,0,0,1,1,2,2,3,3,4,4,5,5,6,6],"right_children":[2,4,6,8,10,12,14,-1,-1,-1,-1,-1,-1,-1,-1],"split_conditions":[NaN,3.3063176E-1,NaN,5.2E1,9.485365E-1,4.405408E0,2.2602367E0,-2.7219453E0,2.433505E1,8.548694E0,5.29473E-1,1.9489836E0,-4.8780718E-1,-5.6803975E0,-1.5192343E0],"split_indices":[5,6,4,3,8,6,8,0,0,0,0,0,0,0,0],"split_type":[1,0,1,0,0,0,0,0,0,0,0,0,0,0,0],"sum_hessian":[2.38E3,1.012E3,1.368E3,1.1E1,1.001E3,9.51E2,4.17E2,3E0,8E0,3.3E1,9.68E2,1.3E2,8.21E2,3E1,3.87E2],"tree_param":{"num_deleted":"0","num_feature":"9","num_nodes":"15","size_leaf_vector":"1"}},{"base_weights":[3.9084095E-1,-7.6568193E0,8.411191E0,-3.095886E0,-1.8026613E1,6.1763916E1,3.3665147E0,1.6046812E1,-3.886129E-1,-5.601869E0,-1.3801793E0,8.084025E0,1.0298753E0,5.6173396E0,-1.9853069E-2],"categories":[0,1,0,1],"categories_nodes":[1,5],"categories_segments":[0,2],"categories_sizes":[2,2],"default_left":[0,1,0,0,0,1,0,0,0,0,0,0,0,0,0],"id":39,"left_children":[1,3,5,7,9,11,13,-1,-1,-1,-1,-1,-1,-1,-1],"loss_changes":[1.5374617E5,5.617907E4,3.2088466E5,1.07517734E5,5.749186E4,1.002895E5,2.0540166E5,0E0,0E0,0E0,0E0,0E0,0E0,0E0,0E0],"parents":[2147483647,0,0,1,1,2,2,3,3,4,4,5,5,6,6],"right_children":[2,4,6,8,10,12,14,-1,-1,-1,-1,-1,-1,-1,-1],"split_conditions":[1.01E2,NaN,2.8285072E0,2.6561737E-1,2.2602367E0,NaN,1.9533155E0,1.6046812E1,-3.886129E-1,-5.601869E0,-1.3801793E0,8.084025E0,1.0298753E0,5.6173396E0,-1.9853069E-2],"split_indices":[3,4,8,7,8,4,6,0,0,0,0,0,0,0,0],"split_type":[0,1,0,0,0,1,0,0,0,0,0,0,0,0,0],"sum_hessian":[2.38E3,1.188E3,1.192E3,8.26E2,3.62E2,1.02E2,1.09E3,3E0,8.23E2,3.5E1,3.27E2,7.4E1,2.8E1,6.8E1,1.022E3],"tree_param":{"num_deleted":"0","num_feature":"9","num_nodes":"15","size_leaf_vector":"1"}},{"base_weights":[3.6157945E-1,8.4309006E1,-3.4939012E-1,3.591461E1,5.094147E1,4.625745E1,-1.5012724E0,1.0014359E1,1.3894933E0,1.1921702E1,9.526953E-1,6.884818E-1,-7.4343604E-1],"categories":[0,1,2,3,5,6,0,1,2,3,4],"categories_nodes":[1,5],"categories_segments":[0,6],"categories_sizes":[6,5],"default_left":[0,1,0,0,0,1,0,0,0,0,0,0,0],"id":40,"left_children":[1,3,5,-1,7,9,11,-1,-1,-1,-1,-1,-1],"loss_changes":[1.4213722E5,1.6511733E5,1.2687482E5,0E0,3.3241105E4,1.5161519E5,1.1478716E5,0E0,0E0,0E0,0E0,0E0,0E0],"parents":[2147483647,0,0,1,1,2,2,4,4,5,5,6,6],"right_children":[2,4,6,-1,8,10,12,-1,-1,-1,-1,-1,-1],"split_conditions":[3.5815495E-1,NaN,8.056475E-1,3.591461E1,1.1786688E1,NaN,1.2444509E1,1.0014359E1,1.3894933E0,1.1921702E1,9.526953E-1,6.884818E-1,-7.4343604E-1],"split_indices":[8,4,7,0,7,4,8,0,0,0,0,0,0],"split_type":[0,1,0,0,0,1,0,0,0,0,0,0,0],"sum_hessian":[2.38E3,1.9E1,2.361E3,1E0,1.8E1,5.6E1,2.305E3,7E0,1.1E1,1.8E1,3.8E1,9.55E2,1.35E3],"tree_param":{"num_deleted":"0","num_feature":"9","num_nodes":"13","size_leaf_vector":"1"}},{"base_weights":[3.5067916E-1,8.928182E0,-5.996553E0,1.5518033E2,7.167749E0,5.0232205E0,-1.0282148E1,6.560657E0,3.1792622E1,7.4256487E0,4.8063612E-1,3.5315723E0,-3.6512304E-2,-1.8640155E0,-4.874098E-1],"categories":[1,2,4,6,0,1,2,3,4],"categories_nodes":[0,2],"categories_segments":[0,4],"categories_sizes":[4,5],"default_left":[1,0,1,0,0,0,0,0,0,0,0,0,0,0,0],"id":41,"left_children":[1,3,5,7,9,11,13,-1,-1,-1,-1,-1,-1,-1,-1],"loss_changes":[1.2968328E5,2.597019E5,6.4704438E4,1.5407512E5,1.5838247E5,6.2691836E4,4.4476844E4,0E0,0E0,0E0,0E0,0E0,0E0,0E0,0E0],"parents":[2147483647,0,0,1,1,2,2,3,3,4,4,5,5,6,6],"right_children":[2,4,6,8,10,12,14,-1,-1,-1,-1,-1,-1,-1,-1],"split_conditions":[NaN,3.3063176E-1,NaN,1.27E2,9.485365E-1,4.405408E0,8.8E1,6.560657E0,3.1792622E1,7.4256487E0,4.8063612E-1,3.5315723E0,-3.6512304E-2,-1.8640155E0,-4.874098E-1],"split_indices":[5,6,4,3,8,6,3,0,0,0,0,0,0,0,0],"split_type":[1,0,1,0,0,0,0,0,0,0,0,0,0,0,0],"sum_hessian":[2.38E3,1.012E3,1.368E3,1.1E1,1.001E3,3.83E2,9.85E2,8E0,3E0,3.3E1,9.68E2,5.7E1,3.26E2,3.86E2,5.99E2],"tree_param":{"num_deleted":"0","num_feature":"9","num_nodes":"15","size_leaf_vector":"1"}},{"base_weights":[3.3552E-1,6.4179525E0,-7.800585E0,1.3843288E2,5.0441546E0,9.129292E0,-1.0779213E1,-2.316549E0,2.0538877E1,2.5246923E1,4.305666E-1,1.2459975E1,4.3863723E-1,-5.884959E0,-9.7485703E-1],"categories":[0,1,2,1,2,3,4,5,6],"categories_nodes":[0,2],"categories_segments":[0,3],"categories_sizes":[3,6],"default_left":[1,0,1,0,0,0,0,0,0,0,0,0,0,0,0],"id":42,"left_children":[1,3,5,7,9,11,13,-1,-1,-1,-1,-1,-1,-1,-1],"loss_changes":[1.1787935E5,2.4649784E5,5.148434E4,1.5623744E5,2.4558584E5,8.3246516E4,4.23804E4,0E0,0E0,0E0,0E0,0E0,0E0,0E0,0E0],"parents":[2147483647,0,0,1,1,2,2,3,3,4,4,5,5,6,6],"right_children":[2,4,6,8,10,12,14,-1,-1,-1,-1,-1,-1,-1,-1],"split_conditions":[NaN,4.6684724E-1,NaN,8.8E1,2.1962188E-1,8.4453374E-1,5.4986936E-1,-2.316549E0,2.0538877E1,2.5246923E1,4.305666E-1,1.2459975E1,4.3863723E-1,-5.884959E0,-9.7485703E-1],"split_indices":[4,6,5,3,8,6,6,0,0,0,0,0,0,0,0],"split_type":[1,0,1,0,0,0,0,0,0,0,0,0,0,0,0],"sum_hessian":[2.38E3,1.362E3,1.018E3,1.3E1,1.349E3,1.52E2,8.66E2,4E0,9E0,3E0,1.346E3,5E0,1.47E2,1.7E1,8.49E2],"tree_param":{"num_deleted":"0","num_feature":"9","num_nodes":"15","size_leaf_vector":"1"}},{"base_weights":[3.2294223E-1,-6.677131E0,7.2992744E0,-1.1732874E1,1.4178045E0,4.578858E1,2.2212527E0,2.1622293E-1,-1.5939866E0,1.0015144E1,3.273067E-2,5.8148003E0,-1.016382E0,4.8120003E0,-9.897249E-2],"categories":[1,2,3,4,6,0],"categories_nodes":[3,5],"categories_segments":[0,5],"categories_sizes":[5,1],"default_left":[0,0,0,1,0,1,0,0,0,0,0,0,0,0,0],"id":43,"left_children":[1,3,5,7,9,11,13,-1,-1,-1,-1,-1,-1,-1,-1],"loss_changes":[1.1632449E5,4.867753E4,2.3306964E5,4.2824695E4,4.9279535E4,9.671494E4,1.5553339E5,0E0,0E0,0E0,0E0,0E0,0E0,0E0,0E0],"parents":[2147483647,0,0,1,1,2,2,3,3,4,4,5,5,6,6],"right_children":[2,4,6,8,10,12,14,-1,-1,-1,-1,-1,-1,-1,-1],"split_conditions":[1.01E2,1.93E2,3.5154035E0,NaN,2.6561737E-1,NaN,1.9533155E0,2.1622293E-1,-1.5939866E0,1.0015144E1,3.273067E-2,5.8148003E0,-1.016382E0,4.8120003E0,-9.897249E-2],"split_indices":[3,2,8,5,7,4,6,0,0,0,0,0,0,0,0],"split_type":[0,0,0,1,0,1,0,0,0,0,0,0,0,0,0],"sum_hessian":[2.38E3,1.188E3,1.192E3,7.31E2,4.57E2,1.38E2,1.054E3,1.7E2,5.61E2,4E0,4.53E2,1.13E2,2.5E1,6.8E1,9.86E2],"tree_param":{"num_deleted":"0","num_feature":"9","num_nodes":"15","size_leaf_vector":"1"}},{"base_weights":[2.9828435E-1,4.5245175E0,-1.010802E1,1.5173328E2,3.82375E0,-1.0945465E1,-9.220483E0,3.1038116E1,4.712045E0,1.4957896E1,3.2145235E-1,-1.2827147E0,9.294043E-2],"categories":[1,6,0,2,3,4,5],"categories_nodes":[0,3],"categories_segments":[0,2],"categories_sizes":[2,5],"default_left":[1,0,0,1,0,0,0,0,0,0,0,0,0],"id":44,"left_children":[1,3,5,7,9,-1,11,-1,-1,-1,-1,-1,-1],"loss_changes":[1.0476084E5,1.7417131E5,5.965436E4,1.1814755E5,1.4932136E5,0E0,2.5014668E4,0E0,0E0,0E0,0E0,0E0,0E0],"parents":[2147483647,0,0,1,1,2,2,3,3,4,4,6,6],"right_children":[2,4,6,8,10,-1,12,-1,-1,-1,-1,-1,-1],"split_conditions":[NaN,2.6207465E-1,3.3063176E-1,NaN,2.1962188E-1,-1.0945465E1,2E2,3.1038116E1,4.712045E0,1.4957896E1,3.2145235E-1,-1.2827147E0,9.294043E-2],"split_indices":[5,6,6,4,8,0,2,0,0,0,0,0,0],"split_type":[1,0,0,1,0,0,0,0,0,0,0,0,0],"sum_hessian":[2.38E3,1.693E3,6.87E2,7E0,1.686E3,5E0,6.82E2,2E0,5E0,6E0,1.68E3,5.03E2,1.79E2],"tree_param":{"num_deleted":"0","num_feature":"9","num_nodes":"13","size_leaf_vector":"1"}},{"base_weights":[2.8479117E-1,3.1986704E1,-1.0177721E0,8.840928E1,1.1378832E1,1.0375879E1,-5.2684216E0,4.428357E0,2.207601E1,-3.0532367E0,3.390929E0,2.2695465E0,-6.089097E-1,2.3308954E0,-8.5079986E-1],"categories":[0,1,2,3,4,0,1,2],"categories_nodes":[1,5],"categories_segments":[0,5],"categories_sizes":[5,3],"default_left":[0,1,0,0,0,1,0,0,0,0,0,0,0,0,0],"id":45,"left_children":[1,3,5,7,9,11,13,-1,-1,-1,-1,-1,-1,-1,-1],"loss_changes":[9.835296E4,1.0829242E5,1.1086346E5,1.3622581E5,6.7134836E4,1.2630572E5,1.5452684E5,0E0,0E0,0E0,0E0,0E0,0E0,0E0,0E0],"parents":[2147483647,0,0,1,1,2,2,3,3,4,4,5,5,6,6],"right_children":[2,4,6,8,10,12,14,-1,-1,-1,-1,-1,-1,-1,-1],"split_conditions":[1.2482221E0,NaN,8.38612E0,2.16E2,7.201569E0,NaN,3.0566556E0,4.428357E0,2.207601E1,-3.0532367E0,3.390929E0,2.2695465E0,-6.089097E-1,2.3308954E0,-8.5079986E-1],"split_indices":[7,4,8,2,8,4,6,0,0,0,0,0,0,0,0],"split_type":[0,1,0,0,0,1,0,0,0,0,0,0,0,0,0],"sum_hessian":[2.38E3,9.3E1,2.287E3,2.4E1,6.9E1,6.21E2,1.666E3,1.9E1,5E0,2.4E1,4.5E1,3.55E2,2.66E2,1.69E2,1.497E3],"tree_param":{"num_deleted":"0","num_feature":"9","num_nodes":"15","size_leaf_vector":"1"}},{"base_weights":[2.6890457E-1,-5.993337E0,6.509924E0,-3.6080337E0,-1.9701883E1,5.8530132E1,3.557886E0,7.518045E0,-3.9945033E-1,-9.792935E0,-1.6841844E0,8.926001E0,1.3112899E0,5.9567857E0,1.5542717E-1],"categories":[1,0,1,5],"categories_nodes":[1,5],"categories_segments":[0,1],"categories_sizes":[1,3],"default_left":[0,1,0,0,0,1,0,0,0,0,0,0,0,0,0],"id":46,"left_children":[1,3,5,7,9,11,13,-1,-1,-1,-1,-1,-1,-1,-1],"loss_changes":[9.309509E4,3.880808E4,1.8299556E5,3.1175955E4,3.7727805E4,8.815216E4,1.26718695E5,0E0,0E0,0E0,0E0,0E0,0E0,0E0,0E0],"parents":[2147483647,0,0,1,1,2,2,3,3,4,4,5,5,6,6],"right_children":[2,4,6,8,10,12,14,-1,-1,-1,-1,-1,-1,-1,-1],"split_conditions":[1.01E2,NaN,1.7888731E0,2.6561737E-1,1.2383797E0,NaN,1.1236039E0,7.518045E0,-3.9945033E-1,-9.792935E0,-1.6841844E0,8.926001E0,1.3112899E0,5.9567857E0,1.5542717E-1],"split_indices":[3,5,8,7,6,4,7,0,0,0,0,0,0,0,0],"split_type":[0,1,0,0,0,1,0,0,0,0,0,0,0,0,0],"sum_hessian":[2.38E3,1.188E3,1.192E3,1.013E3,1.75E2,6.3E1,1.129E3,4E0,1.009E3,5E0,1.7E2,3.7E1,2.6E1,3.8E1,1.091E3],"tree_param":{"num_deleted":"0","num_feature":"9","num_nodes":"15","size_leaf_vector":"1"}},{"base_weights":[2.4705061E-1,1.5634862E1,-2.2451446E0,2.7970106E1,1.3186882E1,-1.4443698E1,8.040034E-1,2.3137526E1,1.0477585E0,-4.49819E0,-1.0270175E0,3.4683007E-1,-1.3425831E0],"categories":[1,2,3,4,5,6,0],"categories_nodes":[0,6],"categories_segments":[0,6],"categories_sizes":[6,1],"default_left":[1,0,0,0,0,0,1,0,0,0,0,0,0],"id":47,"left_children":[1,3,5,-1,7,9,11,-1,-1,-1,-1,-1,-1],"loss_changes":[9.13451E4,2.1092597E5,7.6261766E4,0E0,1.9265103E5,5.179332E4,6.226099E4,0E0,0E0,0E0,0E0,0E0,0E0],"parents":[2147483647,0,0,1,1,2,2,4,4,5,5,6,6],"right_children":[2,4,6,-1,8,10,12,-1,-1,-1,-1,-1,-1],"split_conditions":[NaN,2.6207465E-1,6.5E1,2.7970106E1,3.5815495E-1,3.5154035E0,NaN,2.3137526E1,1.0477585E0,-4.49819E0,-1.0270175E0,3.4683007E-1,-1.3425831E0],"split_indices":[5,6,3,0,8,8,4,0,0,0,0,0,0],"split_type":[1,0,0,0,0,0,1,0,0,0,0,0,0],"sum_hessian":[2.38E3,3.31E2,2.049E3,2E0,3.29E2,4.09E2,1.64E3,3E0,3.26E2,4.8E1,3.61E2,1.382E3,2.58E2],"tree_param":{"num_deleted":"0","num_feature":"9","num_nodes":"13","size_leaf_vector":"1"}},{"base_weights":[2.4151173E-1,6.9945774E0,-4.850816E0,2.0442331E2,6.0199323E0,-9.017581E0,3.7183404E0,2.2981958E1,5.141913E0,2.4086515E1,5.321941E-1,-6.3731813E-1,-2.2443905E0,3.4424102E0,-1.064209E-1],"categories":[0,1,2,3,1],"categories_nodes":[0,5],"categories_segments":[0,4],"categories_sizes":[4,1],"default_left":[1,0,0,0,0,1,0,0,0,0,0,0,0,0,0],"id":48,"left_children":[1,3,5,7,9,11,13,-1,-1,-1,-1,-1,-1,-1,-1],"loss_changes":[8.191372E4,1.9581055E5,4.852182E4,7.611547E3,1.6591655E5,3.230814E4,6.5385695E4,0E0,0E0,0E0,0E0,0E0,0E0,0E0,0E0],"parents":[2147483647,0,0,1,1,2,2,3,3,4,4,5,5,6,6],"right_children":[2,4,6,8,10,12,14,-1,-1,-1,-1,-1,-1,-1,-1],"split_conditions":[NaN,3.3063176E-1,2E2,2.4689737E1,2.1962188E-1,NaN,3.5154035E0,2.2981958E1,5.141913E0,2.4086515E1,5.321941E-1,-6.3731813E-1,-2.2443905E0,3.4424102E0,-1.064209E-1],"split_indices":[4,6,2,8,8,5,8,0,0,0,0,0,0,0,0],"split_type":[1,0,0,0,0,1,0,0,0,0,0,0,0,0,0],"sum_hessian":[2.38E3,1.023E3,1.357E3,4E0,1.019E3,9.13E2,4.44E2,3E0,1E0,2E0,1.017E3,7.64E2,1.49E2,5.9E1,3.85E2],"tree_param":{"num_deleted":"0","num_feature":"9","num_nodes":"15","size_leaf_vector":"1"}},{"base_weights":[2.3970334E-1,1.0429189E1,-2.950962E0,4.127145E1,5.21462E0,4.273562E0,-9.702515E0,2.536061E1,3.2793012E0,-2.915778E-1,2.1543603E0,-2.5153992E-1,1.4650118E0,2.7748125E0,-1.1576761E0],"categories":[1,2,3,4,5,6],"categories_nodes":[1],"categories_segments":[0],"categories_sizes":[6],"default_left":[0,1,0,0,0,0,0,0,0,0,0,0,0,0,0],"id":49,"left_children":[1,3,5,7,9,11,13,-1,-1,-1,-1,-1,-1,-1,-1],"loss_changes":[7.744003E4,9.11357E4,8.852251E4,1.3930534E5,6.4717477E4,6.181801E4,6.6161055E4,0E0,0E0,0E0,0E0,0E0,0E0,0E0,0E0],"parents":[2147483647,0,0,1,1,2,2,3,3,4,4,5,5,6,6],"right_children":[2,4,6,8,10,12,14,-1,-1,-1,-1,-1,-1,-1,-1],"split_conditions":[6.9897885E0,NaN,1.4437186E1,2.6207465E-1,1.23E2,1.13E2,1.7741095E0,2.536061E1,3.2793012E0,-2.915778E-1,2.1543603E0,-2.5153992E-1,1.4650118E0,2.7748125E0,-1.1576761E0],"split_indices":[6,5,8,6,3,3,7,0,0,0,0,0,0,0,0],"split_type":[0,1,0,0,0,0,0,0,0,0,0,0,0,0,0],"sum_hessian":[2.38E3,5.67E2,1.813E3,8.1E1,4.86E2,8.76E2,9.37E2,2E0,7.9E1,3.25E2,1.61E2,5.3E2,3.46E2,4.4E1,8.93E2],"tree_param":{"num_deleted":"0","num_feature":"9","num_nodes":"15","size_leaf_vector":"1"}},{"base_weights":[2.2973262E-1,2.4908936E0,-1.2854733E1,1.581199E1,-7.8577745E-1,-1.098167E2,-1.170329E1,2.9769561E0,-3.7230298E-1,3.3461843E0,-3.527787E-1,-1.2433185E1,-3.313565E0,-4.0960765E0,-7.87804E-1],"categories":[1,0,1,2,0],"categories_nodes":[0,3,5],"categories_segments":[0,1,4],"categories_sizes":[1,3,1],"default_left":[1,0,0,1,0,1,0,0,0,0,0,0,0,0,0],"id":50,"left_children":[1,3,5,7,9,11,13,-1,-1,-1,-1,-1,-1,-1,-1],"loss_changes":[7.0476484E4,8.8663234E4,3.7902637E4,1.0944806E5,1.5328083E5,3.3232812E2,3.8624473E4,0E0,0E0,0E0,0E0,0E0,0E0,0E0,0E0],"parents":[2147483647,0,0,1,1,2,2,3,3,4,4,5,5,6,6],"right_children":[2,4,6,8,10,12,14,-1,-1,-1,-1,-1,-1,-1,-1],"split_conditions":[NaN,5.799729E0,3.3063176E-1,NaN,2.4392693E0,NaN,3.5154035E0,2.9769561E0,-3.7230298E-1,3.3461843E0,-3.527787E-1,-1.2433185E1,-3.313565E0,-4.0960765E0,-7.87804E-1],"split_indices":[5,8,6,4,6,1,8,0,0,0,0,0,0,0,0],"split_type":[1,0,0,1,0,1,0,0,0,0,0,0,0,0,0],"sum_hessian":[2.38E3,2.03E3,3.5E2,4E2,1.63E3,3E0,3.47E2,2.33E2,1.67E2,1.2E2,1.51E3,2E0,1E0,3.9E1,3.08E2],"tree_param":{"num_deleted":"0","num_feature":"9","num_nodes":"15","size_leaf_vector":"1"}},{"base_weights":[2.0044588E-1,5.853101E1,-2.935472E-1,2.8212843E1,3.191386E1,-5.576955E0,5.4230328E0,7.369977E0,1.3971E-1,-1.3841012E0,-2.9374683E-1,1.657017E1,4.7096673E-1],"categories":[0,1,2,3,5,6],"categories_nodes":[1],"categories_segments":[0],"categories_sizes":[6],"default_left":[0,1,0,0,0,0,0,0,0,0,0,0,0],"id":51,"left_children":[1,3,5,-1,7,9,11,-1,-1,-1,-1,-1,-1],"loss_changes":[6.8625445E4,1.100267E5,7.136979E4,0E0,2.4125273E4,2.6745543E4,1.2899237E5,0E0,0E0,0E0,0E0,0E0,0E0],"parents":[2147483647,0,0,1,1,2,2,4,4,5,5,6,6],"right_children":[2,4,6,-1,8,10,12,-1,-1,-1,-1,-1,-1],"split_conditions":[3.5815495E-1,NaN,1.83E2,2.8212843E1,1.1786688E1,6.7E1,2.6207465E-1,7.369977E0,1.3971E-1,-1.3841012E0,-2.9374683E-1,1.657017E1,4.7096673E-1],"split_indices":[8,4,2,0,7,3,6,0,0,0,0,0,0],"split_type":[0,1,0,0,0,0,0,0,0,0,0,0,0],"sum_hessian":[2.38E3,1.9E1,2.361E3,1E0,1.8E1,1.227E3,1.134E3,7E0,1.1E1,2.96E2,9.31E2,4E0,1.13E3],"tree_param":{"num_deleted":"0","num_feature":"9","num_nodes":"13","size_leaf_vector":"1"}},{"base_weights":[2.0185643E-1,2.4052823E0,-1.2215225E1,4.9571205E1,1.184873E0,-4.234303E1,-9.339307E0,1.4942472E0,9.107825E0,3.7303917E0,-6.5148934E-3,-1.0495149E0,-9.1894245E0,-1.0582761E1,-8.4255326E-1],"categories":[0],"categories_nodes":[0],"categories_segments":[0],"categories_sizes":[1],"default_left":[1,0,0,0,0,0,0,0,0,0,0,0,0,0,0],"id":52,"left_children":[1,3,5,7,9,11,13,-1,-1,-1,-1,-1,-1,-1,-1],"loss_changes":[6.517382E4,1.1638865E5,3.0710133E4,7.194322E4,8.9082586E4,4.7956688E4,2.8115795E4,0E0,0E0,0E0,0E0,0E0,0E0,0E0,0E0],"parents":[2147483647,0,0,1,1,2,2,3,3,4,4,5,5,6,6],"right_children":[2,4,6,8,10,12,14,-1,-1,-1,-1,-1,-1,-1,-1],"split_conditions":[NaN,8.450734E-1,1.5901033E0,9.8E1,1.1606455E0,1.641946E1,2.6207465E-1,1.4942472E0,9.107825E0,3.7303917E0,-6.5148934E-3,-1.0495149E0,-9.1894245E0,-1.0582761E1,-8.4255326E-1],"split_indices":[4,8,8,3,6,6,6,0,0,0,0,0,0,0,0],"split_type":[1,0,0,0,0,0,0,0,0,0,0,0,0,0,0],"sum_hessian":[2.38E3,2.022E3,3.58E2,5E1,1.972E3,3E1,3.28E2,2.8E1,2.2E1,6.5E1,1.907E3,1.9E1,1.1E1,2E0,3.26E2],"tree_param":{"num_deleted":"0","num_feature":"9","num_nodes":"15","size_leaf_vector":"1"}},{"base_weights":[1.785893E-1,7.6268135E1,-1.7449531E-1,1.6721649E2,4.095699E-1,-2.8997154E0,9.507956E0,1.8925688E1,3.9527497E0,-4.054246E0,6.852643E0,7.062014E0,-3.2972717E-1,7.2543907E0,5.780673E-1],"categories":[1,2,4,5,0,2,3,4],"categories_nodes":[1,3],"categories_segments":[0,4],"categories_sizes":[4,4],"default_left":[0,1,0,1,0,0,0,0,0,0,0,0,0,0,0],"id":53,"left_children":[1,3,5,7,9,11,13,-1,-1,-1,-1,-1,-1,-1,-1],"loss_changes":[6.3981367E4,7.582284E4,6.2590695E4,6.5907188E3,2.2304896E4,5.433441E4,1.2199108E5,0E0,0E0,0E0,0E0,0E0,0E0,0E0,0E0],"parents":[2147483647,0,0,1,1,2,2,3,3,4,4,5,5,6,6],"right_children":[2,4,6,8,10,12,14,-1,-1,-1,-1,-1,-1,-1,-1],"split_conditions":[2.6561737E-1,NaN,1.34E2,NaN,1.04E2,2.1962188E-1,1.4037857E0,1.8925688E1,3.9527497E0,-4.054246E0,6.852643E0,7.062014E0,-3.2972717E-1,7.2543907E0,5.780673E-1],"split_indices":[7,5,3,4,3,8,6,0,0,0,0,0,0,0,0],"split_type":[0,1,0,1,0,0,0,0,0,0,0,0,0,0,0],"sum_hessian":[2.38E3,1E1,2.37E3,4E0,6E0,1.85E3,5.2E2,3E0,1E0,4E0,2E0,9E0,1.841E3,2.8E1,4.92E2],"tree_param":{"num_deleted":"0","num_feature":"9","num_nodes":"15","size_leaf_vector":"1"}},{"base_weights":[1.7763144E-1,1.2902529E1,-1.8832679E0,2.242476E1,1.0942111E1,-6.6390743E0,3.408343E0,1.9047926E1,8.712476E-1,-7.3346124E0,-6.010027E-1,3.3734062E0,1.3028109E-1],"categories":[1,2,3,4,5,6],"categories_nodes":[0],"categories_segments":[0],"categories_sizes":[6],"default_left":[1,0,0,0,0,0,0,0,0,0,0,0,0],"id":54,"left_children":[1,3,5,-1,7,9,11,-1,-1,-1,-1,-1,-1],"loss_changes":[6.2465383E4,1.35102E5,5.161267E4,0E0,1.3044025E5,4.4878027E4,6.1956117E4,0E0,0E0,0E0,0E0,0E0,0E0],"parents":[2147483647,0,0,1,1,2,2,4,4,5,5,6,6],"right_children":[2,4,6,-1,8,10,12,-1,-1,-1,-1,-1,-1],"split_conditions":[NaN,2.6207465E-1,1.83E2,2.242476E1,3.5815495E-1,3.3063176E-1,2.0339317E0,1.9047926E1,8.712476E-1,-7.3346124E0,-6.010027E-1,3.3734062E0,1.3028109E-1],"split_indices":[5,6,2,0,8,6,8,0,0,0,0,0,0],"split_type":[1,0,0,0,0,0,0,0,0,0,0,0,0],"sum_hessian":[2.38E3,3.31E2,2.049E3,2E0,3.29E2,1.079E3,9.7E2,3E0,3.26E2,9E0,1.07E3,6.2E1,9.08E2],"tree_param":{"num_deleted":"0","num_feature":"9","num_nodes":"13","size_leaf_vector":"1"}},{"base_weights":[1.7579117E-1,3.2735507E0,-7.451797E0,1.6953499E1,-1.1109704E-1,-8.5754845E1,-6.753012E0,3.2053697E0,-2.6790908E-1,3.934035E0,-2.4787124E-1,-1.0067329E1,-3.7278638E0,-2.3426912E0,-4.5645973E-1],"categories":[1,6,0,1,2,0],"categories_nodes":[0,3,5],"categories_segments":[0,2,5],"categories_sizes":[2,3,1],"default_left":[1,0,0,1,0,1,0,0,0,0,0,0,0,0,0],"id":55,"left_children":[1,3,5,7,9,11,13,-1,-1,-1,-1,-1,-1,-1,-1],"loss_changes":[5.6283695E4,7.843715E4,3.7066188E4,9.9695086E4,1.2703606E5,5.861758E2,2.481533E4,0E0,0E0,0E0,0E0,0E0,0E0,0E0,0E0],"parents":[2147483647,0,0,1,1,2,2,3,3,4,4,5,5,6,6],"right_children":[2,4,6,8,10,12,14,-1,-1,-1,-1,-1,-1,-1,-1],"split_conditions":[NaN,5.799729E0,3.3063176E-1,NaN,1.8340249E0,NaN,3.5154035E0,3.2053697E0,-2.6790908E-1,3.934035E0,-2.4787124E-1,-1.0067329E1,-3.7278638E0,-2.3426912E0,-4.5645973E-1],"split_indices":[5,8,6,4,6,1,8,0,0,0,0,0,0,0,0],"split_type":[1,0,0,1,0,1,0,0,0,0,0,0,0,0,0],"sum_hessian":[2.38E3,1.693E3,6.87E2,3.35E2,1.358E3,5E0,6.82E2,1.89E2,1.46E2,7.6E1,1.282E3,3E0,2E0,7.8E1,6.04E2],"tree_param":{"num_deleted":"0","num_feature":"9","num_nodes":"15","size_leaf_vector":"1"}},{"base_weights":[1.5402451E-1,7.047467E1,-1.7228554E-1,1.5505812E2,-9.894235E-3,1.133365E1,-1.9924762E0,1.750177E1,3.7609909E0,-3.8206017E0,6.3653607E0,1.297854E1,9.0701884E-1,6.133335E0,-2.302072E-1],"categories":[1,2,4,5,0,1,2,3,4,5,0,2,3,4],"categories_nodes":[1,2,3],"categories_segments":[0,4,10],"categories_sizes":[4,6,4],"default_left":[0,1,1,1,0,0,0,0,0,0,0,0,0,0,0],"id":56,"left_children":[1,3,5,7,9,11,13,-1,-1,-1,-1,-1,-1,-1,-1],"loss_changes":[5.4647355E4,6.558164E4,4.9678426E4,5.1386797E3,1.9453842E4,8.5690766E4,4.029307E4,0E0,0E0,0E0,0E0,0E0,0E0,0E0,0E0],"parents":[2147483647,0,0,1,1,2,2,3,3,4,4,5,5,6,6],"right_children":[2,4,6,8,10,12,14,-1,-1,-1,-1,-1,-1,-1,-1],"split_conditions":[2.6561737E-1,NaN,NaN,NaN,1.04E2,4.6684724E-1,2.1962188E-1,1.750177E1,3.7609909E0,-3.8206017E0,6.3653607E0,1.297854E1,9.0701884E-1,6.133335E0,-2.302072E-1],"split_indices":[7,5,4,4,3,6,8,0,0,0,0,0,0,0,0],"split_type":[0,1,1,1,0,0,0,0,0,0,0,0,0,0,0],"sum_hessian":[2.38E3,1E1,2.37E3,4E0,6E0,3.23E2,2.047E3,3E0,1E0,4E0,2E0,5E0,3.18E2,9E0,2.038E3],"tree_param":{"num_deleted":"0","num_feature":"9","num_nodes":"15","size_leaf_vector":"1"}},{"base_weights":[1.5693183E-1,2.2896364E1,-7.773617E-1,-1.8897003E1,4.09132E1,4.894558E0,-4.8812304E0,2.7989316E0,-3.5087621E0,3.1519203E0,1.7864038E1,1.2210233E0,-4.8833928E-1,1.3752025E0,-7.702667E-1],"categories":[1,4,6],"categories_nodes":[5],"categories_segments":[0],"categories_sizes":[3],"default_left":[0,0,0,0,0,1,0,0,0,0,0,0,0,0,0],"id":57,"left_children":[1,3,5,7,9,11,13,-1,-1,-1,-1,-1,-1,-1,-1],"loss_changes":[5.0602867E4,7.155366E4,5.328124E4,2.2996512E4,7.976079E4,6.880218E4,6.992229E4,0E0,0E0,0E0,0E0,0E0,0E0,0E0,0E0],"parents":[2147483647,0,0,1,1,2,2,3,3,4,4,5,5,6,6],"right_children":[2,4,6,8,10,12,14,-1,-1,-1,-1,-1,-1,-1,-1],"split_conditions":[1.2482221E0,7.201569E0,1.2444509E1,4.2E1,2.23E2,NaN,3.837491E0,2.7989316E0,-3.5087621E0,3.1519203E0,1.7864038E1,1.2210233E0,-4.8833928E-1,1.3752025E0,-7.702667E-1],"split_indices":[7,8,8,0,2,5,6,0,0,0,0,0,0,0,0],"split_type":[0,0,0,0,0,1,0,0,0,0,0,0,0,0,0],"sum_hessian":[2.38E3,9.3E1,2.287E3,2.8E1,6.5E1,9.6E2,1.327E3,7E0,2.1E1,6.2E1,3E0,5.49E2,4.11E2,1.74E2,1.153E3],"tree_param":{"num_deleted":"0","num_feature":"9","num_nodes":"15","size_leaf_vector":"1"}},{"base_weights":[1.5032926E-1,5.33606E0,-3.760082E0,1.5391675E2,4.602492E0,-1.1385165E1,-1.4176189E0,1.7564207E1,3.3507752E0,1.9027742E1,4.050795E-1,-4.0203176E0,-7.57721E-1,6.163708E-2,-1.321347E0],"categories":[0,1,2,3,1],"categories_nodes":[0,6],"categories_segments":[0,4],"categories_sizes":[4,1],"default_left":[1,0,0,0,0,0,1,0,0,0,0,0,0,0,0],"id":58,"left_children":[1,3,5,7,9,11,13,-1,-1,-1,-1,-1,-1,-1,-1],"loss_changes":[4.830279E4,1.1090152E5,2.4239748E4,7.194242E3,1.0371422E5,3.47017E4,2.4960488E4,0E0,0E0,0E0,0E0,0E0,0E0,0E0,0E0],"parents":[2147483647,0,0,1,1,2,2,3,3,4,4,5,5,6,6],"right_children":[2,4,6,8,10,12,14,-1,-1,-1,-1,-1,-1,-1,-1],"split_conditions":[NaN,3.3063176E-1,6.5E1,2.4689737E1,2.1962188E-1,2.2602367E0,NaN,1.7564207E1,3.3507752E0,1.9027742E1,4.050795E-1,-4.0203176E0,-7.57721E-1,6.163708E-2,-1.321347E0],"split_indices":[4,6,3,8,8,8,5,0,0,0,0,0,0,0,0],"split_type":[1,0,0,0,0,0,1,0,0,0,0,0,0,0,0],"sum_hessian":[2.38E3,1.023E3,1.357E3,4E0,1.019E3,3.18E2,1.039E3,3E0,1E0,2E0,1.017E3,3.6E1,2.82E2,8.87E2,1.52E2],"tree_param":{"num_deleted":"0","num_feature":"9","num_nodes":"15","size_leaf_vector":"1"}},{"base_weights":[1.4970617E-1,-8.301818E0,2.4349186E0,-9.48079E1,-7.425412E0,9.254414E1,2.0477083E0,-1.058637E1,-2.5292344E0,-2.3136926E0,-4.7470695E-1,1.985958E1,-1.0806E0,1.0589311E1,1.7121635E-1],"categories":[0,0,2,4,5],"categories_nodes":[3,5],"categories_segments":[0,1],"categories_sizes":[1,4],"default_left":[0,0,0,1,0,1,0,0,0,0,0,0,0,0,0],"id":59,"left_children":[1,3,5,7,9,11,13,-1,-1,-1,-1,-1,-1,-1,-1],"loss_changes":[4.6005723E4,3.7733938E4,6.5231516E4,1.1652109E3,2.1056822E4,8.982964E4,6.4908766E4,0E0,0E0,0E0,0E0,0E0,0E0,0E0,0E0],"parents":[2147483647,0,0,1,1,2,2,3,3,4,4,5,5,6,6],"right_children":[2,4,6,8,10,12,14,-1,-1,-1,-1,-1,-1,-1,-1],"split_conditions":[1.52E2,3.3063176E-1,2.6207465E-1,NaN,3.5154035E0,NaN,2.1962188E-1,-1.058637E1,-2.5292344E0,-2.3136926E0,-4.7470695E-1,1.985958E1,-1.0806E0,1.0589311E1,1.7121635E-1],"split_indices":[2,6,6,1,8,4,8,0,0,0,0,0,0,0,0],"split_type":[0,0,0,1,0,1,0,0,0,0,0,0,0,0,0],"sum_hessian":[2.38E3,5.06E2,1.874E3,4E0,5.02E2,7E0,1.867E3,3E0,1E0,7.2E1,4.3E2,3E0,4E0,5E0,1.862E3],"tree_param":{"num_deleted":"0","num_feature":"9","num_nodes":"15","size_leaf_vector":"1"}},{"base_weights":[1.4046258E-1,1.0864268E1,-1.5963395E0,1.6573755E2,8.948289E0,-9.3202715E0,9.476357E-1,2.156008E1,8.0739135E-1,1.7689754E1,7.380105E-1,-3.220806E0,-5.8297694E-1,2.9364765E-1,-9.301443E-1],"categories":[1,2,3,4,5,6,0],"categories_nodes":[0,6],"categories_segments":[0,6],"categories_sizes":[6,1],"default_left":[1,0,0,0,0,0,1,0,0,0,0,0,0,0,0],"id":60,"left_children":[1,3,5,7,9,11,13,-1,-1,-1,-1,-1,-1,-1,-1],"loss_changes":[4.4363773E4,9.703266E4,4.029028E4,2.9705742E4,8.534494E4,4.039629E4,3.1479494E4,0E0,0E0,0E0,0E0,0E0,0E0,0E0,0E0],"parents":[2147483647,0,0,1,1,2,2,3,3,4,4,5,5,6,6],"right_children":[2,4,6,8,10,12,14,-1,-1,-1,-1,-1,-1,-1,-1],"split_conditions":[NaN,3.5815495E-1,7.1E1,7.6E1,2.6207465E-1,3.6750093E0,NaN,2.156008E1,8.0739135E-1,1.7689754E1,7.380105E-1,-3.220806E0,-5.8297694E-1,2.9364765E-1,-9.301443E-1],"split_indices":[5,8,3,0,6,8,4,0,0,0,0,0,0,0,0],"split_type":[1,0,0,0,0,0,1,0,0,0,0,0,0,0,0],"sum_hessian":[2.38E3,3.31E2,2.049E3,3E0,3.28E2,5.07E2,1.542E3,2E0,1E0,2E0,3.26E2,6.6E1,4.41E2,1.292E3,2.5E2],"tree_param":{"num_deleted":"0","num_feature":"9","num_nodes":"15","size_leaf_vector":"1"}},{"base_weights":[1.4168528E-1,6.309547E1,-1.504418E-1,1.3786879E2,6.7231315E-1,-2.417828E0,7.905379E0,1.5539088E1,3.3890214E0,-4.393694E0,4.5113487E0,4.739797E0,-2.6869598E-1,5.8273325E0,4.5999104E-1],"categories":[1,2,4,5,0,2,3,4],"categories_nodes":[1,3],"categories_segments":[0,4],"categories_sizes":[4,4],"default_left":[0,1,0,1,0,0,0,0,0,0,0,0,0,0,0],"id":61,"left_children":[1,3,5,7,9,11,13,-1,-1,-1,-1,-1,-1,-1,-1],"loss_changes":[4.379729E4,5.1250758E4,4.332699E4,3.8433828E3,1.5859561E4,2.4943709E4,8.647306E4,0E0,0E0,0E0,0E0,0E0,0E0,0E0,0E0],"parents":[2147483647,0,0,1,1,2,2,3,3,4,4,5,5,6,6],"right_children":[2,4,6,8,10,12,14,-1,-1,-1,-1,-1,-1,-1,-1],"split_conditions":[2.6561737E-1,NaN,1.34E2,NaN,9.7E1,2.1962188E-1,1.8635187E0,1.5539088E1,3.3890214E0,-4.393694E0,4.5113487E0,4.739797E0,-2.6869598E-1,5.8273325E0,4.5999104E-1],"split_indices":[7,5,3,4,3,8,8,0,0,0,0,0,0,0,0],"split_type":[0,1,0,1,0,0,0,0,0,0,0,0,0,0,0],"sum_hessian":[2.38E3,1E1,2.37E3,4E0,6E0,1.85E3,5.2E2,3E0,1E0,3E0,3E0,9E0,1.841E3,3.1E1,4.89E2],"tree_param":{"num_deleted":"0","num_feature":"9","num_nodes":"15","size_leaf_vector":"1"}},{"base_weights":[1.4003453E-1,1.9973013E1,-6.7484313E-1,-1.5897027E1,3.543147E1,4.4589705E0,-4.3893914E0,-3.2674272E0,1.9247164E0,2.7746856E0,1.476063E1,2.3572276E0,1.4405566E-1,1.2106102E0,-6.9863385E-1],"categories":[1,2,3,4,5,6],"categories_nodes":[5],"categories_segments":[0],"categories_sizes":[6],"default_left":[0,0,0,0,0,1,0,0,0,0,0,0,0,0,0],"id":62,"left_children":[1,3,5,7,9,11,13,-1,-1,-1,-1,-1,-1,-1,-1],"loss_changes":[3.849389E4,5.2685832E4,4.3651273E4,1.7727945E4,5.2797727E4,5.5407926E4,5.6973324E4,0E0,0E0,0E0,0E0,0E0,0E0,0E0,0E0],"parents":[2147483647,0,0,1,1,2,2,3,3,4,4,5,5,6,6],"right_children":[2,4,6,8,10,12,14,-1,-1,-1,-1,-1,-1,-1,-1],"split_conditions":[1.2482221E0,7.201569E0,1.2444509E1,1.12E2,2.23E2,NaN,3.9214487E0,-3.2674272E0,1.9247164E0,2.7746856E0,1.476063E1,2.3572276E0,1.4405566E-1,1.2106102E0,-6.9863385E-1],"split_indices":[7,8,8,3,2,5,6,0,0,0,0,0,0,0,0],"split_type":[0,0,0,0,0,1,0,0,0,0,0,0,0,0,0],"sum_hessian":[2.38E3,9.3E1,2.287E3,2.8E1,6.5E1,9.6E2,1.327E3,1.9E1,9E0,6.2E1,3E0,1.3E2,8.3E2,1.8E2,1.147E3],"tree_param":{"num_deleted":"0","num_feature":"9","num_nodes":"15","size_leaf_vector":"1"}},{"base_weights":[1.3409768E-1,1.8126997E0,-9.325362E0,3.6928497E1,9.04074E-1,-3.992947E1,-6.716204E0,9.41879E-1,7.0009065E0,1.7512751E0,-6.3137315E-2,-9.2045784E-1,-8.012894E0,-6.159019E0,-5.344795E-1],"categories":[0],"categories_nodes":[0],"categories_segments":[0],"categories_sizes":[1],"default_left":[1,0,0,0,0,0,0,0,0,0,0,0,0,0,0],"id":63,"left_children":[1,3,5,7,9,11,13,-1,-1,-1,-1,-1,-1,-1,-1],"loss_changes":[3.7824008E4,6.451471E4,2.8398314E4,4.5752477E4,5.0325996E4,3.384593E4,2.4655371E4,0E0,0E0,0E0,0E0,0E0,0E0,0E0,0E0],"parents":[2147483647,0,0,1,1,2,2,3,3,4,4,5,5,6,6],"right_children":[2,4,6,8,10,12,14,-1,-1,-1,-1,-1,-1,-1,-1],"split_conditions":[NaN,8.450734E-1,1.4356093E0,9.8E1,2.511139E0,1.641946E1,4.6684724E-1,9.41879E-1,7.0009065E0,1.7512751E0,-6.3137315E-2,-9.2045784E-1,-8.012894E0,-6.159019E0,-5.344795E-1],"split_indices":[4,8,8,3,7,6,6,0,0,0,0,0,0,0,0],"split_type":[1,0,0,0,0,0,0,0,0,0,0,0,0,0,0],"sum_hessian":[2.38E3,2.022E3,3.58E2,5E1,1.972E3,2.7E1,3.31E2,2.8E1,2.2E1,1.66E2,1.806E3,1.6E1,1.1E1,7E0,3.24E2],"tree_param":{"num_deleted":"0","num_feature":"9","num_nodes":"15","size_leaf_vector":"1"}},{"base_weights":[1.18170135E-1,1.742584E0,-9.281553E0,6.437456E0,-2.8443751E0,-3.4387917E1,-6.03304E0,-2.98722E-1,1.2841145E0,1.4799346E0,-6.162022E-1,-7.088999E-1,-6.4187303E0,-8.267829E0,-5.0213444E-1],"categories":[1,0,1,3],"categories_nodes":[0,5],"categories_segments":[0,1],"categories_sizes":[1,3],"default_left":[1,0,0,0,0,1,0,0,0,0,0,0,0,0,0],"id":64,"left_children":[1,3,5,7,9,11,13,-1,-1,-1,-1,-1,-1,-1,-1],"loss_changes":[3.6371758E4,4.3756277E4,2.841952E4,6.0632457E4,6.0265824E4,3.2084613E4,2.3777848E4,0E0,0E0,0E0,0E0,0E0,0E0,0E0,0E0],"parents":[2147483647,0,0,1,1,2,2,3,3,4,4,5,5,6,6],"right_children":[2,4,6,8,10,12,14,-1,-1,-1,-1,-1,-1,-1,-1],"split_conditions":[NaN,1.4437186E1,3.5154035E0,8.8E1,5.0564604E0,NaN,3.3063176E-1,-2.98722E-1,1.2841145E0,1.4799346E0,-6.162022E-1,-7.088999E-1,-6.4187303E0,-8.267829E0,-5.0213444E-1],"split_indices":[5,8,8,3,6,4,6,0,0,0,0,0,0,0,0],"split_type":[1,0,0,0,0,1,0,0,0,0,0,0,0,0,0],"sum_hessian":[2.38E3,2.03E3,3.5E2,1.003E3,1.027E3,3.9E1,3.11E2,4.06E2,5.97E2,1.62E2,8.65E2,2.1E1,1.8E1,3E0,3.08E2],"tree_param":{"num_deleted":"0","num_feature":"9","num_nodes":"15","size_leaf_vector":"1"}},{"base_weights":[1.00453146E-1,9.640992E0,-1.406973E0,1.0115352E2,7.895004E0,2.4731483E0,-5.2706757E0,1.1548407E1,1.4750397E0,4.532627E0,4.2910096E-1,8.634788E0,1.8128826E-1,-8.222885E-1,1.08184196E-1],"categories":[0,1,2,3,4,5,0,1,3,6],"categories_nodes":[0,2,3],"categories_segments":[0,6,7],"categories_sizes":[6,1,3],"default_left":[1,0,1,1,0,0,0,0,0,0,0,0,0,0,0],"id":65,"left_children":[1,3,5,7,9,11,13,-1,-1,-1,-1,-1,-1,-1,-1],"loss_changes":[3.425629E4,5.112982E4,3.0850826E4,5.725785E3,4.297417E4,5.6718316E4,1.934423E4,0E0,0E0,0E0,0E0,0E0,0E0,0E0,0E0],"parents":[2147483647,0,0,1,1,2,2,3,3,4,4,5,5,6,6],"right_children":[2,4,6,8,10,12,14,-1,-1,-1,-1,-1,-1,-1,-1],"split_conditions":[NaN,4.6684724E-1,NaN,NaN,2.8285072E0,3.5815495E-1,1.96E2,1.1548407E1,1.4750397E0,4.532627E0,4.2910096E-1,8.634788E0,1.8128826E-1,-8.222885E-1,1.08184196E-1],"split_indices":[4,6,1,5,8,8,2,0,0,0,0,0,0,0,0],"split_type":[1,0,1,1,0,0,0,0,0,0,0,0,0,0,0],"sum_hessian":[2.38E3,3.24E2,2.056E3,5E0,3.19E2,1.026E3,1.03E3,4E0,1E0,2.7E1,2.92E2,7E0,1.019E3,7.03E2,3.27E2],"tree_param":{"num_deleted":"0","num_feature":"9","num_nodes":"15","size_leaf_vector":"1"}},{"base_weights":[1.01364434E-1,5.527997E1,-1.5467352E-1,1.2173364E2,-8.408247E-2,-2.57125E0,5.3027525E0,1.3707369E1,3.0186737E0,-3.8561642E0,3.8414497E0,5.6852084E-1,-3.9935532E-1,4.01345E0,2.6748443E-1],"categories":[1,2,4,5,0,2,3,4,1,2,3,4,5,6],"categories_nodes":[1,3,5],"categories_segments":[0,4,8],"categories_sizes":[4,4,6],"default_left":[0,1,0,1,0,1,0,0,0,0,0,0,0,0,0],"id":66,"left_children":[1,3,5,7,9,11,13,-1,-1,-1,-1,-1,-1,-1,-1],"loss_changes":[3.364688E4,4.0480824E4,3.1283062E4,2.8838594E3,1.18506455E4,1.9328504E4,6.652986E4,0E0,0E0,0E0,0E0,0E0,0E0,0E0,0E0],"parents":[2147483647,0,0,1,1,2,2,3,3,4,4,5,5,6,6],"right_children":[2,4,6,8,10,12,14,-1,-1,-1,-1,-1,-1,-1,-1],"split_conditions":[2.6561737E-1,NaN,1.23E2,NaN,9.7E1,NaN,2.0339317E0,1.3707369E1,3.0186737E0,-3.8561642E0,3.8414497E0,5.6852084E-1,-3.9935532E-1,4.01345E0,2.6748443E-1],"split_indices":[7,5,3,4,3,5,8,0,0,0,0,0,0,0,0],"split_type":[0,1,0,1,0,1,0,0,0,0,0,0,0,0,0],"sum_hessian":[2.38E3,1E1,2.37E3,4E0,6E0,1.643E3,7.27E2,3E0,1E0,3E0,3E0,2.41E2,1.402E3,5E1,6.77E2],"tree_param":{"num_deleted":"0","num_feature":"9","num_nodes":"15","size_leaf_vector":"1"}},{"base_weights":[1.00115985E-1,-6.8932467E0,1.9910679E0,-8.233892E1,-6.1295853E0,1.4469288E1,5.3566255E-2,-9.238204E0,-2.1083221E0,-1.9610751E0,-3.3801138E-1,3.0672648E0,-6.7266166E-1,2.2492557E0,-1.2931009E-1],"categories":[0,0,1,2],"categories_nodes":[3,5],"categories_segments":[0,1],"categories_sizes":[1,3],"default_left":[0,0,0,1,0,1,0,0,0,0,0,0,0,0,0],"id":67,"left_children":[1,3,5,7,9,11,13,-1,-1,-1,-1,-1,-1,-1,-1],"loss_changes":[3.1500336E4,2.870607E4,4.5330297E4,1.1282812E3,1.8577953E4,8.675442E4,4.9102867E4,0E0,0E0,0E0,0E0,0E0,0E0,0E0,0E0],"parents":[2147483647,0,0,1,1,2,2,3,3,4,4,5,5,6,6],"right_children":[2,4,6,8,10,12,14,-1,-1,-1,-1,-1,-1,-1,-1],"split_conditions":[1.52E2,3.3063176E-1,4.2053366E0,NaN,4.2053366E0,NaN,1.6647987E0,-9.238204E0,-2.1083221E0,-1.9610751E0,-3.3801138E-1,3.0672648E0,-6.7266166E-1,2.2492557E0,-1.2931009E-1],"split_indices":[2,6,8,1,8,4,7,0,0,0,0,0,0,0,0],"split_type":[0,0,0,1,0,1,0,0,0,0,0,0,0,0,0],"sum_hessian":[2.38E3,5.06E2,1.874E3,4E0,5.02E2,2.51E2,1.623E3,3E0,1E0,8.4E1,4.18E2,1.42E2,1.09E2,9.1E1,1.532E3],"tree_param":{"num_deleted":"0","num_feature":"9","num_nodes":"15","size_leaf_vector":"1"}},{"base_weights":[8.626972E-2,1.521436E0,-8.218314E0,6.105957E1,1.2558084E0,-3.8259937E1,-5.5967593E0,-2.8004613E0,1.102591E1,8.898863E-1,-9.2386596E-2,-1.2145768E0,-9.204032E0,-7.141155E0,-4.759202E-1],"categories":[1],"categories_nodes":[0],"categories_segments":[0],"categories_sizes":[1],"default_left":[1,0,0,0,0,0,0,0,0,0,0,0,0,0,0],"id":68,"left_children":[1,3,5,7,9,11,13,-1,-1,-1,-1,-1,-1,-1,-1],"loss_changes":[2.8390354E4,3.2043531E4,2.742914E4,4.2525004E4,3.3710125E4,3.820614E4,1.7520203E4,0E0,0E0,0E0,0E0,0E0,0E0,0E0,0E0],"parents":[2147483647,0,0,1,1,2,2,3,3,4,4,5,5,6,6],"right_children":[2,4,6,8,10,12,14,-1,-1,-1,-1,-1,-1,-1,-1],"split_conditions":[NaN,2.6561737E-1,2.457861E0,6.4903297E0,6.7302675E0,5.2E1,3.3063176E-1,-2.8004613E0,1.102591E1,8.898863E-1,-9.2386596E-2,-1.2145768E0,-9.204032E0,-7.141155E0,-4.759202E-1],"split_indices":[5,7,8,8,6,0,6,0,0,0,0,0,0,0,0],"split_type":[1,0,0,0,0,0,0,0,0,0,0,0,0,0,0],"sum_hessian":[2.38E3,2.03E3,3.5E2,8E0,2.022E3,2.7E1,3.23E2,3E0,5E0,4.48E2,1.574E3,1.9E1,8E0,3E0,3.2E2],"tree_param":{"num_deleted":"0","num_feature":"9","num_nodes":"15","size_leaf_vector":"1"}},{"base_weights":[7.385773E-2,3.976258E0,-2.868802E0,1.2637418E2,3.37237E0,-2.6375008E1,-2.390171E0,1.4274688E1,3.044171E0,1.5036613E1,2.9358733E-1,5.382034E-1,-5.2139444E0,-4.428279E-1,1.8227278E-1],"categories":[0,1,2,3,0,2],"categories_nodes":[0,5],"categories_segments":[0,4],"categories_sizes":[4,2],"default_left":[1,0,0,0,0,1,0,0,0,0,0,0,0,0,0],"id":69,"left_children":[1,3,5,7,9,11,13,-1,-1,-1,-1,-1,-1,-1,-1],"loss_changes":[2.7353469E4,7.526242E4,1.5215541E4,3.5079062E3,6.500408E4,2.2372076E4,1.1445079E4,0E0,0E0,0E0,0E0,0E0,0E0,0E0,0E0],"parents":[2147483647,0,0,1,1,2,2,3,3,4,4,5,5,6,6],"right_children":[2,4,6,8,10,12,14,-1,-1,-1,-1,-1,-1,-1,-1],"split_conditions":[NaN,3.3063176E-1,5.9784037E-1,2.4689737E1,2.1962188E-1,NaN,2E2,1.4274688E1,3.044171E0,1.5036613E1,2.9358733E-1,5.382034E-1,-5.2139444E0,-4.428279E-1,1.8227278E-1],"split_indices":[4,6,6,8,8,4,2,0,0,0,0,0,0,0,0],"split_type":[1,0,0,0,0,1,0,0,0,0,0,0,0,0,0],"sum_hessian":[2.38E3,1.023E3,1.357E3,4E0,1.019E3,2.6E1,1.331E3,3E0,1E0,2E0,1.017E3,1.2E1,1.4E1,8.97E2,4.34E2],"tree_param":{"num_deleted":"0","num_feature":"9","num_nodes":"15","size_leaf_vector":"1"}},{"base_weights":[7.811143E-2,-6.0317574E0,1.8521155E0,-1.7835869E1,-4.393412E0,2.7058483E1,1.1785426E0,1.6027974E0,-3.676197E0,-2.9064662E0,-3.796492E-1,5.727812E0,-3.0347052E-1,2.1401966E0,3.1080691E-2],"categories":[1,2,3,4,6,1,3,6],"categories_nodes":[3,5],"categories_segments":[0,5],"categories_sizes":[5,3],"default_left":[0,0,0,1,0,1,0,0,0,0,0,0,0,0,0],"id":70,"left_children":[1,3,5,7,9,11,13,-1,-1,-1,-1,-1,-1,-1,-1],"loss_changes":[2.581867E4,1.0287457E4,3.1310104E4,4.2248406E4,6.8406924E3,4.382527E4,3.1563252E4,0E0,0E0,0E0,0E0,0E0,0E0,0E0,0E0],"parents":[2147483647,0,0,1,1,2,2,3,3,4,4,5,5,6,6],"right_children":[2,4,6,8,10,12,14,-1,-1,-1,-1,-1,-1,-1,-1],"split_conditions":[6.7E1,3.5154035E0,8.450734E-1,NaN,8.4453374E-1,NaN,1.2482221E0,1.6027974E0,-3.676197E0,-2.9064662E0,-3.796492E-1,5.727812E0,-3.0347052E-1,2.1401966E0,3.1080691E-2],"split_indices":[3,8,8,5,6,5,7,0,0,0,0,0,0,0,0],"split_type":[0,0,0,1,0,1,0,0,0,0,0,0,0,0,0],"sum_hessian":[2.38E3,5.35E2,1.845E3,6.4E1,4.71E2,4.7E1,1.798E3,2.3E1,4.1E1,1E1,4.61E2,2.3E1,2.4E1,7.3E1,1.725E3],"tree_param":{"num_deleted":"0","num_feature":"9","num_nodes":"15","size_leaf_vector":"1"}},{"base_weights":[7.1239546E-2,1.4281733E0,-7.575413E0,2.8509764E1,7.2741854E-1,-3.3698124E1,-5.090977E0,1.2412153E0,7.016687E0,1.3125619E0,-6.4746775E-2,-4.3174715E0,4.106252E0,-4.505169E0,-3.8262957E-1],"categories":[0],"categories_nodes":[0],"categories_segments":[0],"categories_sizes":[1],"default_left":[1,0,0,0,0,0,0,0,0,0,0,0,0,0,0],"id":71,"left_children":[1,3,5,7,9,11,13,-1,-1,-1,-1,-1,-1,-1,-1],"loss_changes":[2.4716078E4,3.8370855E4,2.3127621E4,3.3328652E4,3.3640484E4,2.3735613E4,1.6454484E4,0E0,0E0,0E0,0E0,0E0,0E0,0E0,0E0],"parents":[2147483647,0,0,1,1,2,2,3,3,4,4,5,5,6,6],"right_children":[2,4,6,8,10,12,14,-1,-1,-1,-1,-1,-1,-1,-1],"split_conditions":[NaN,8.450734E-1,1.5901033E0,1.2E2,3.110999E0,2.19E2,5.4986936E-1,1.2412153E0,7.016687E0,1.3125619E0,-6.4746775E-2,-4.3174715E0,4.106252E0,-4.505169E0,-3.8262957E-1],"split_indices":[4,8,8,3,6,2,6,0,0,0,0,0,0,0,0],"split_type":[1,0,0,0,0,0,0,0,0,0,0,0,0,0,0],"sum_hessian":[2.38E3,2.022E3,3.58E2,5E1,1.972E3,3E1,3.28E2,3.7E1,1.3E1,1.96E2,1.776E3,2.7E1,3E0,9E0,3.19E2],"tree_param":{"num_deleted":"0","num_feature":"9","num_nodes":"15","size_leaf_vector":"1"}},{"base_weights":[6.596613E-2,-2.9632165E0,3.3661232E0,4.7955696E1,-3.332185E0,6.9489655E1,2.7785003E0,1.9427052E1,5.38253E-1,-1.46397455E-2,-6.3566905E-1,1.272161E1,-1.3679999E0,1.8768247E0,6.2879615E-2],"categories":[0,1,2,3,5,6,0,0,1,2],"categories_nodes":[3,4,5],"categories_segments":[0,6,7],"categories_sizes":[6,1,3],"default_left":[0,0,0,1,1,1,0,0,0,0,0,0,0,0,0],"id":72,"left_children":[1,3,5,7,9,11,13,-1,-1,-1,-1,-1,-1,-1,-1],"loss_changes":[2.3812303E4,2.3493832E4,4.410242E4,5.5016098E4,1.1889193E4,4.9751188E4,3.886432E4,0E0,0E0,0E0,0E0,0E0,0E0,0E0,0E0],"parents":[2147483647,0,0,1,1,2,2,3,3,4,4,5,5,6,6],"right_children":[2,4,6,8,10,12,14,-1,-1,-1,-1,-1,-1,-1,-1],"split_conditions":[1.83E2,2.1962188E-1,3.3063176E-1,NaN,NaN,NaN,3.6750093E0,1.9427052E1,5.38253E-1,-1.46397455E-2,-6.3566905E-1,1.272161E1,-1.3679999E0,1.8768247E0,6.2879615E-2],"split_indices":[2,8,6,4,1,4,8,0,0,0,0,0,0,0,0],"split_type":[0,0,0,1,1,1,0,0,0,0,0,0,0,0,0],"sum_hessian":[2.38E3,1.241E3,1.139E3,8E0,1.233E3,9E0,1.13E3,1E0,7E0,6.01E2,6.32E2,5E0,4E0,1.33E2,9.97E2],"tree_param":{"num_deleted":"0","num_feature":"9","num_nodes":"15","size_leaf_vector":"1"}},{"base_weights":[7.306434E-2,7.8939276E0,-1.1626447E0,6.905113E1,5.9335923E0,2.0767372E0,-4.388331E0,9.357053E0,-1.9350942E0,3.9894388E0,2.7512646E-1,1.016734E1,1.6856597E-1,-2.4827752E0,-3.3868265E-1],"categories":[0,1,2,3,4,5,0,3,6],"categories_nodes":[0,2,3],"categories_segments":[0,6,7],"categories_sizes":[6,1,2],"default_left":[1,0,1,1,0,0,0,0,0,0,0,0,0,0,0],"id":73,"left_children":[1,3,5,7,9,11,13,-1,-1,-1,-1,-1,-1,-1,-1],"loss_changes":[2.3019906E4,3.855409E4,2.1503178E4,2.348632E4,3.4041742E4,3.983028E4,2.1020664E4,0E0,0E0,0E0,0E0,0E0,0E0,0E0,0E0],"parents":[2147483647,0,0,1,1,2,2,3,3,4,4,5,5,6,6],"right_children":[2,4,6,8,10,12,14,-1,-1,-1,-1,-1,-1,-1,-1],"split_conditions":[NaN,5.4986936E-1,NaN,NaN,2.8285072E0,2.1962188E-1,1.4356093E0,9.357053E0,-1.9350942E0,3.9894388E0,2.7512646E-1,1.016734E1,1.6856597E-1,-2.4827752E0,-3.3868265E-1],"split_indices":[4,6,1,5,8,8,8,0,0,0,0,0,0,0,0],"split_type":[1,0,1,1,0,0,0,0,0,0,0,0,0,0,0],"sum_hessian":[2.38E3,3.24E2,2.056E3,9E0,3.15E2,1.026E3,1.03E3,7E0,2E0,2.6E1,2.89E2,3E0,1.023E3,4.7E1,9.83E2],"tree_param":{"num_deleted":"0","num_feature":"9","num_nodes":"15","size_leaf_vector":"1"}},{"base_weights":[7.3822215E-2,2.0286949E0,-4.7395906E0,1.075875E1,-2.5276202E-1,-2.2673054E1,-3.1146748E0,2.0804007E0,-1.9311796E-1,2.7197306E0,-1.8507574E-1,-3.2476387E0,3.3219872E0,-5.56233E0,-2.6072323E-1],"categories":[1,6,0,1,2],"categories_nodes":[0,3],"categories_segments":[0,2],"categories_sizes":[2,3],"default_left":[1,0,0,1,0,0,0,0,0,0,0,0,0,0,0],"id":74,"left_children":[1,3,5,7,9,11,13,-1,-1,-1,-1,-1,-1,-1,-1],"loss_changes":[2.2413895E4,3.3742535E4,1.9977957E4,4.4783406E4,5.9005004E4,3.2311266E4,1.6694684E4,0E0,0E0,0E0,0E0,0E0,0E0,0E0,0E0],"parents":[2147483647,0,0,1,1,2,2,3,3,4,4,5,5,6,6],"right_children":[2,4,6,8,10,12,14,-1,-1,-1,-1,-1,-1,-1,-1],"split_conditions":[NaN,6.0491743E0,2.457861E0,NaN,1.6557703E0,2.05E2,3.3063176E-1,2.0804007E0,-1.9311796E-1,2.7197306E0,-1.8507574E-1,-3.2476387E0,3.3219872E0,-5.56233E0,-2.6072323E-1],"split_indices":[5,8,8,4,6,2,6,0,0,0,0,0,0,0,0],"split_type":[1,0,0,1,0,0,0,0,0,0,0,0,0,0,0],"sum_hessian":[2.38E3,1.693E3,6.87E2,3.5E2,1.343E3,5.6E1,6.31E2,1.95E2,1.55E2,7.3E1,1.27E3,4.8E1,8E0,5E0,6.26E2],"tree_param":{"num_deleted":"0","num_feature":"9","num_nodes":"15","size_leaf_vector":"1"}},{"base_weights":[6.588202E-2,7.500516E0,-1.1381981E0,1.7843323E1,6.4450297E0,-3.9555898E0,1.9966333E0,1.3762919E1,5.229232E-1,-4.0066323E0,-3.374915E-1,2.0492907E0,7.125168E-2],"categories":[1,2,3,4,5,6],"categories_nodes":[0],"categories_segments":[0],"categories_sizes":[6],"default_left":[1,0,0,0,0,0,0,0,0,0,0,0,0],"id":75,"left_children":[1,3,5,-1,7,9,11,-1,-1,-1,-1,-1,-1],"loss_changes":[2.1323E4,5.8748477E4,1.8113594E4,0E0,5.2072633E4,2.2510863E4,2.3047977E4,0E0,0E0,0E0,0E0,0E0,0E0],"parents":[2147483647,0,0,1,1,2,2,4,4,5,5,6,6],"right_children":[2,4,6,-1,8,10,12,-1,-1,-1,-1,-1,-1],"split_conditions":[NaN,2.1962188E-1,1.83E2,1.7843323E1,2.6207465E-1,5.4986936E-1,2.0339317E0,1.3762919E1,5.229232E-1,-4.0066323E0,-3.374915E-1,2.0492907E0,7.125168E-2],"split_indices":[5,8,2,0,6,6,8,0,0,0,0,0,0],"split_type":[1,0,0,0,0,0,0,0,0,0,0,0,0],"sum_hessian":[2.38E3,3.31E2,2.049E3,1E0,3.3E2,1.079E3,9.7E2,2E0,3.28E2,1.6E1,1.063E3,6.2E1,9.08E2],"tree_param":{"num_deleted":"0","num_feature":"9","num_nodes":"13","size_leaf_vector":"1"}},{"base_weights":[7.18542E-2,4.263562E1,-1.2564614E-1,1.0109143E2,-5.209331E0,-1.7038287E0,5.4815354E0,1.15811405E1,2.1105773E0,-3.6332378E0,2.721605E0,-3.6753411E0,-1.43593E-1,4.5270324E0,3.1299E-1],"categories":[1,2,4,5,0,2,3,4],"categories_nodes":[1,3],"categories_segments":[0,4],"categories_sizes":[4,4],"default_left":[0,1,0,1,0,0,0,0,0,0,0,0,0,0,0],"id":76,"left_children":[1,3,5,7,9,11,13,-1,-1,-1,-1,-1,-1,-1,-1],"loss_changes":[2.0020896E4,3.129159E4,2.099069E4,3.4426406E3,8.0530605E3,1.7327633E4,4.860761E4,0E0,0E0,0E0,0E0,0E0,0E0,0E0,0E0],"parents":[2147483647,0,0,1,1,2,2,3,3,4,4,5,5,6,6],"right_children":[2,4,6,8,10,12,14,-1,-1,-1,-1,-1,-1,-1,-1],"split_conditions":[2.6561737E-1,NaN,1.34E2,NaN,9.7E1,5.383559E-1,1.4037857E0,1.15811405E1,2.1105773E0,-3.6332378E0,2.721605E0,-3.6753411E0,-1.43593E-1,4.5270324E0,3.1299E-1],"split_indices":[7,5,3,4,3,7,6,0,0,0,0,0,0,0,0],"split_type":[0,1,0,1,0,0,0,0,0,0,0,0,0,0,0],"sum_hessian":[2.38E3,1E1,2.37E3,4E0,6E0,1.85E3,5.2E2,3E0,1E0,3E0,3E0,1.3E1,1.837E3,2.8E1,4.92E2],"tree_param":{"num_deleted":"0","num_feature":"9","num_nodes":"15","size_leaf_vector":"1"}},{"base_weights":[7.046525E-2,2.1239593E0,-3.706188E0,1.4042484E1,3.0791238E-1,7.723403E1,-4.1864214E0,1.6958338E1,1.2440886E0,-7.345242E-1,2.725977E-1,1.2699271E1,1.7306723E-1,7.9992075E0,-4.4845596E-1],"categories":[1,2,3,4,5,6,0,2,3,4,5],"categories_nodes":[1,5],"categories_segments":[0,6],"categories_sizes":[6,5],"default_left":[0,1,0,0,0,1,0,0,0,0,0,0,0,0,0],"id":77,"left_children":[1,3,5,7,9,11,13,-1,-1,-1,-1,-1,-1,-1,-1],"loss_changes":[1.8473326E4,3.3393297E4,3.293543E4,4.870946E4,2.4817822E4,1.8564955E4,2.1314574E4,0E0,0E0,0E0,0E0,0E0,0E0,0E0,0E0],"parents":[2147483647,0,0,1,1,2,2,3,3,4,4,5,5,6,6],"right_children":[2,4,6,8,10,12,14,-1,-1,-1,-1,-1,-1,-1,-1],"split_conditions":[1.9431013E1,NaN,2.6207465E-1,2.1962188E-1,7.1E1,NaN,2.6561737E-1,1.6958338E1,1.2440886E0,-7.345242E-1,2.725977E-1,1.2699271E1,1.7306723E-1,7.9992075E0,-4.4845596E-1],"split_indices":[8,5,6,8,3,4,7,0,0,0,0,0,0,0,0],"split_type":[0,1,0,0,0,1,0,0,0,0,0,0,0,0,0],"sum_hessian":[2.38E3,1.542E3,8.38E2,2.03E2,1.339E3,4E0,8.34E2,1E0,2.02E2,3.21E2,1.018E3,2E0,2E0,2E0,8.32E2],"tree_param":{"num_deleted":"0","num_feature":"9","num_nodes":"15","size_leaf_vector":"1"}},{"base_weights":[7.944741E-2,1.2370508E0,-6.4439816E0,2.3137115E1,6.703298E-1,-3.0443104E1,-4.1630797E0,4.040839E0,-1.0771798E0,1.4941773E0,-2.5374977E-2,-9.890653E-1,-6.2160263E0,-4.3657265E0,-3.168929E-1],"categories":[0,1,3],"categories_nodes":[0,3],"categories_segments":[0,1],"categories_sizes":[1,2],"default_left":[1,0,0,1,0,0,0,0,0,0,0,0,0,0,0],"id":78,"left_children":[1,3,5,7,9,11,13,-1,-1,-1,-1,-1,-1,-1,-1],"loss_changes":[1.7988195E4,2.5092402E4,1.9524797E4,3.0303428E4,2.6023613E4,1.9593023E4,1.2779236E4,0E0,0E0,0E0,0E0,0E0,0E0,0E0,0E0],"parents":[2147483647,0,0,1,1,2,2,3,3,4,4,5,5,6,6],"right_children":[2,4,6,8,10,12,14,-1,-1,-1,-1,-1,-1,-1,-1],"split_conditions":[NaN,8.450734E-1,1.5901033E0,NaN,1.7741095E0,1.641946E1,4.6684724E-1,4.040839E0,-1.0771798E0,1.4941773E0,-2.5374977E-2,-9.890653E-1,-6.2160263E0,-4.3657265E0,-3.168929E-1],"split_indices":[4,8,8,5,7,6,6,0,0,0,0,0,0,0,0],"split_type":[1,0,0,1,0,0,0,0,0,0,0,0,0,0,0],"sum_hessian":[2.38E3,2.022E3,3.58E2,5E1,1.972E3,3E1,3.28E2,3.3E1,1.7E1,1.19E2,1.853E3,1.9E1,1.1E1,7E0,3.21E2],"tree_param":{"num_deleted":"0","num_feature":"9","num_nodes":"15","size_leaf_vector":"1"}},{"base_weights":[6.837162E-2,1.1888918E0,-6.4155164E0,3.6276512E0,-3.3536842E0,-2.818688E1,-3.6037533E0,-2.0382145E-1,7.604402E-1,5.334442E0,-4.0758058E-1,-1.5631629E0,-6.969589E0,-5.478585E0,-2.9295394E-1],"categories":[1],"categories_nodes":[0],"categories_segments":[0],"categories_sizes":[1],"default_left":[1,0,0,0,0,0,0,0,0,0,0,0,0,0,0],"id":79,"left_children":[1,3,5,7,9,11,13,-1,-1,-1,-1,-1,-1,-1,-1],"loss_changes":[1.7306371E4,2.2512092E4,2.1385203E4,2.9802451E4,2.928689E4,1.9756787E4,1.06059E4,0E0,0E0,0E0,0E0,0E0,0E0,0E0,0E0],"parents":[2147483647,0,0,1,1,2,2,3,3,4,4,5,5,6,6],"right_children":[2,4,6,8,10,12,14,-1,-1,-1,-1,-1,-1,-1,-1],"split_conditions":[NaN,1.9431013E1,3.5154035E0,8.8E1,6.3683033E-1,6.4E1,3.3063176E-1,-2.0382145E-1,7.604402E-1,5.334442E0,-4.0758058E-1,-1.5631629E0,-6.969589E0,-5.478585E0,-2.9295394E-1],"split_indices":[5,8,8,3,7,0,6,0,0,0,0,0,0,0,0],"split_type":[1,0,0,0,0,0,0,0,0,0,0,0,0,0,0],"sum_hessian":[2.38E3,2.03E3,3.5E2,1.321E3,7.09E2,3.9E1,3.11E2,5.45E2,7.76E2,8E0,7.01E2,3.1E1,8E0,3E0,3.08E2],"tree_param":{"num_deleted":"0","num_feature":"9","num_nodes":"15","size_leaf_vector":"1"}},{"base_weights":[5.7830125E-2,6.771912E0,-1.0030034E0,5.6799355E1,5.003424E0,1.7694812E0,-3.7637587E0,3.5983078E0,1.0031507E1,2.0539355E0,1.2673645E-1,2.2652116E0,3.1172264E-2,-1.6922098E0,-2.4101643E-1],"categories":[0,1,2,3,4,5,0],"categories_nodes":[0,2],"categories_segments":[0,6],"categories_sizes":[6,1],"default_left":[1,0,1,0,0,0,0,0,0,0,0,0,0,0,0],"id":80,"left_children":[1,3,5,7,9,11,13,-1,-1,-1,-1,-1,-1,-1,-1],"loss_changes":[1.696552E4,2.8469514E4,1.5751249E4,6.354543E3,1.8257568E4,3.1256707E4,1.8322412E4,0E0,0E0,0E0,0E0,0E0,0E0,0E0,0E0],"parents":[2147483647,0,0,1,1,2,2,3,3,4,4,5,5,6,6],"right_children":[2,4,6,8,10,12,14,-1,-1,-1,-1,-1,-1,-1,-1],"split_conditions":[NaN,1.1236039E0,NaN,2.16E2,6.310072E0,1.8635187E0,2.457861E0,3.5983078E0,1.0031507E1,2.0539355E0,1.2673645E-1,2.2652116E0,3.1172264E-2,-1.6922098E0,-2.4101643E-1],"split_indices":[4,7,1,2,8,8,8,0,0,0,0,0,0,0,0],"split_type":[1,0,1,0,0,0,0,0,0,0,0,0,0,0,0],"sum_hessian":[2.38E3,3.24E2,2.056E3,1E1,3.14E2,1.026E3,1.03E3,8E0,2E0,6E1,2.54E2,6.6E1,9.6E2,9.5E1,9.35E2],"tree_param":{"num_deleted":"0","num_feature":"9","num_nodes":"15","size_leaf_vector":"1"}},{"base_weights":[5.8840055E-2,-1.2227942E0,5.3849845E0,2.8614857E0,-2.710019E0,6.531929E1,4.050044E0,1.873278E0,-5.1417004E-2,-5.3068357E0,-2.4927275E-1,1.0839849E0,1.1763077E1,4.25836E0,2.7241823E-1],"categories":[1,2,3,4,6],"categories_nodes":[1],"categories_segments":[0],"categories_sizes":[5],"default_left":[0,1,0,0,0,0,0,0,0,0,0,0,0,0,0],"id":81,"left_children":[1,3,5,7,9,11,13,-1,-1,-1,-1,-1,-1,-1,-1],"loss_changes":[1.6259693E4,1.1670301E4,3.6699492E4,2.7494133E4,1.5274672E4,2.7223898E4,2.3027842E4,0E0,0E0,0E0,0E0,0E0,0E0,0E0,0E0],"parents":[2147483647,0,0,1,1,2,2,3,3,4,4,5,5,6,6],"right_children":[2,4,6,8,10,12,14,-1,-1,-1,-1,-1,-1,-1,-1],"split_conditions":[2.12E2,NaN,7.84708E-1,5.010164E0,2.6207465E-1,1.26E2,1.2152761E0,1.873278E0,-5.1417004E-2,-5.3068357E0,-2.4927275E-1,1.0839849E0,1.1763077E1,4.25836E0,2.7241823E-1],"split_indices":[2,5,6,8,6,3,8,0,0,0,0,0,0,0,0],"split_type":[0,1,0,0,0,0,0,0,0,0,0,0,0,0,0],"sum_hessian":[2.38E3,1.919E3,4.61E2,5.12E2,1.407E3,9E0,4.52E2,8.9E1,4.23E2,5E0,1.402E3,5E0,4E0,1.4E1,4.38E2],"tree_param":{"num_deleted":"0","num_feature":"9","num_nodes":"15",